{"learner":{"attributes":{"scikit_learn":"{\"_estimator_type\": \"regressor\"}"},"feature_names":["Time_Index","Month_Num","LSOA code","Crime type"],"feature_types":["int","int","c","c"],"gradient_booster":{"model":{"cats":{"enc":[{"offsets":[],"values":[]},{"offsets":[],"values":[]},{"offsets":[0,9,18,27,36,45,54,63,72,81,90,99,108,117,126,135,144,153,162,171,180,189,198,207,216,225,234,243,252,261,270,279,288,297,306,315,324,333,342,351,360,369,378,387,396,405,414,423,432,441,450,459,468,477,486,495,504,513,522,531,540,549,558,567,576,585,594,603,612,621,630,639,648,657,666,675,684,693,702,711,720,729,738,747,756,765,774,783,792,801,810,819,828,837,846,855,864,873,882,891,900,909,918,927,936,945,954,963,972,981,990,999,1008,1017,1026,1035,1044,1053,1062,1071,1080,1089,1098,1107,1116,1125,1134,1143,1152,1161,1170,1179,1188,1197,1206,1215,1224,1233,1242,1251,1260,1269,1278,1287,1296,1305,1314,1323,1332,1341,1350,1359,1368,1377,1386],"values":[69,48,49,48,48,48,48,48,49,69,48,49,48,48,48,48,48,50,69,48,49,48,48,48,48,48,51,69,48,49,48,48,48,48,48,53,69,48,49,48,48,48,48,49,51,69,48,49,48,48,48,48,51,54,69,48,49,48,48,48,49,49,48,69,48,49,48,48,48,50,51,52,69,48,49,48,48,48,51,52,55,69,48,49,48,48,48,55,50,56,69,48,49,48,48,48,55,51,49,69,48,49,48,48,48,56,57,56,69,48,49,48,48,48,57,49,52,69,48,49,48,48,48,57,49,54,69,48,49,48,48,48,57,49,55,69,48,49,48,48,48,57,49,56,69,48,49,48,48,48,57,49,57,69,48,49,48,48,48,57,50,48,69,48,49,48,48,48,57,54,55,69,48,49,48,48,49,52,50,55,69,48,49,48,48,49,52,53,57,69,48,49,48,48,49,52,55,53,69,48,49,48,48,49,52,57,57,69,48,49,48,48,49,54,49,56,69,48,49,48,48,49,55,50,57,69,48,49,48,48,49,55,54,52,69,48,49,48,48,49,55,57,56,69,48,49,48,48,49,56,57,56,69,48,49,48,48,49,57,55,52,69,48,49,48,48,50,48,49,54,69,48,49,48,48,50,51,50,57,69,48,49,48,48,50,52,51,53,69,48,49,48,48,50,53,54,48,69,48,49,48,48,50,54,51,55,69,48,49,48,48,50,54,57,53,69,48,49,48,48,50,55,48,51,69,48,49,48,48,50,55,48,52,69,48,49,48,48,50,55,48,54,69,48,49,48,48,50,55,49,49,69,48,49,48,48,50,55,50,51,69,48,49,48,48,50,55,50,52,69,48,49,48,48,50,55,50,54,69,48,49,48,48,50,55,51,50,69,48,49,48,48,50,55,56,51,69,48,49,48,48,50,57,48,53,69,48,49,48,48,50,57,48,57,69,48,49,48,48,51,48,49,51,69,48,49,48,48,51,48,49,54,69,48,49,48,48,51,48,52,55,69,48,49,48,48,51,49,48,56,69,48,49,48,48,51,49,49,48,69,48,49,48,48,51,52,56,54,69,48,49,48,48,51,52,56,57,69,48,49,48,48,51,52,57,55,69,48,49,48,48,51,54,50,51,69,48,49,48,48,51,55,51,53,69,48,49,48,48,51,55,53,54,69,48,49,48,48,51,57,50,57,69,48,49,48,48,51,57,51,51,69,48,49,48,48,51,57,51,52,69,48,49,48,48,51,57,52,49,69,48,49,48,48,51,57,55,57,69,48,49,48,48,51,57,56,49,69,48,49,48,48,52,48,51,52,69,48,49,48,48,52,48,51,53,69,48,49,48,48,52,50,48,52,69,48,49,48,48,52,50,48,54,69,48,49,48,48,52,50,48,56,69,48,49,48,48,52,50,54,56,69,48,49,48,48,52,50,55,48,69,48,49,48,48,52,50,55,49,69,48,49,48,48,52,50,56,54,69,48,49,48,48,52,50,57,48,69,48,49,48,48,52,50,57,51,69,48,49,48,48,52,50,57,53,69,48,49,48,48,52,50,57,54,69,48,49,48,48,52,50,57,56,69,48,49,48,48,52,51,48,52,69,48,49,48,48,52,51,48,54,69,48,49,48,48,52,51,48,55,69,48,49,48,48,52,51,48,56,69,48,49,48,48,52,51,48,57,69,48,49,48,48,52,51,49,48,69,48,49,48,48,52,51,50,49,69,48,49,48,48,52,51,50,50,69,48,49,48,48,52,51,50,54,69,48,49,48,48,52,52,49,49,69,48,49,48,48,52,52,50,53,69,48,49,48,48,52,52,50,54,69,48,49,48,48,52,52,51,52,69,48,49,48,48,52,52,52,56,69,48,49,48,48,52,52,52,57,69,48,49,48,48,52,54,53,54,69,48,49,48,48,52,54,54,49,69,48,49,48,48,52,55,49,57,69,48,49,48,48,52,55,50,55,69,48,49,48,48,52,55,51,52,69,48,49,48,48,52,55,51,53,69,48,49,48,48,52,55,51,54,69,48,49,48,48,52,55,54,51,69,48,49,48,48,52,57,50,50,69,48,49,48,48,53,57,54,50,69,48,49,48,48,56,55,55,53,69,48,49,48,48,56,57,52,48,69,48,49,48,48,57,54,53,48,69,48,49,48,48,57,54,53,53,69,48,49,48,49,48,57,51,48,69,48,49,48,49,49,50,50,54,69,48,49,48,49,49,50,50,55,69,48,49,48,49,49,55,57,49,69,48,49,48,49,57,52,49,50,69,48,49,48,50,49,56,49,52,69,48,49,48,50,54,50,53,56,69,48,49,48,50,55,48,50,50,69,48,49,48,50,55,50,48,50,69,48,49,48,50,55,56,53,55,69,48,49,48,50,56,51,57,55,69,48,49,48,50,56,54,54,57,69,48,49,48,50,56,57,53,54,69,48,49,48,50,57,52,48,55,69,48,49,48,50,57,56,48,57,69,48,49,48,50,57,56,49,50,69,48,49,48,51,50,53,56,52,69,48,49,48,51,50,54,52,48,69,48,49,48,51,50,55,51,57,69,48,49,48,51,50,55,52,48,69,48,49,48,51,50,55,54,55,69,48,49,48,51,51,52,56,57,69,48,49,48,51,51,52,57,48,69,48,49,48,51,51,53,57,52,69,48,49,48,51,51,55,48,54,69,48,49,48,51,51,55,48,56,69,48,49,48,51,51,56,52,55,69,48,49,48,51,51,56,54,56,69,48,49,48,51,51,56,56,52,69,48,49,48,51,51,56,56,53,69,48,49,48,51,51,57,57,49,69,48,49,48,51,52,50,49,51,69,48,49,48,51,52,50,49,56,69,48,49,48,51,52,52,55,51,69,48,49,48,51,53,54,52,51,69,48,49,48,51,53,54,55,48,69,48,49,48,51,53,54,55,56,69,48,49,48,51,53,54,56,55,69,48,49,48,51,53,54,56,56,69,48,49,48,51,53,54,57,55,69,48,49,48,51,53,55,48,50,69,48,49,48,51,53,55,49,49,69,48,49,48,51,53,55,49,54,69,48,49,48,51,53,55,49,56,87,48,49,48,48,48,52,56,56,87,48,49,48,48,48,53,55,52,87,48,49,48,48,48,54,50,55,87,48,49,48,48,49,57,53,53]},{"offsets":[0,21,34,42,67,72,83,94,115,127,134,145,166,179,207],"values":[65,110,116,105,45,115,111,99,105,97,108,32,98,101,104,97,118,105,111,117,114,66,105,99,121,99,108,101,32,116,104,101,102,116,66,117,114,103,108,97,114,121,67,114,105,109,105,110,97,108,32,100,97,109,97,103,101,32,97,110,100,32,97,114,115,111,110,68,114,117,103,115,79,116,104,101,114,32,99,114,105,109,101,79,116,104,101,114,32,116,104,101,102,116,80,111,115,115,101,115,115,105,111,110,32,111,102,32,119,101,97,112,111,110,115,80,117,98,108,105,99,32,111,114,100,101,114,82,111,98,98,101,114,121,83,104,111,112,108,105,102,116,105,110,103,84,104,101,102,116,32,102,114,111,109,32,116,104,101,32,112,101,114,115,111,110,86,101,104,105,99,108,101,32,99,114,105,109,101,86,105,111,108,101,110,99,101,32,97,110,100,32,115,101,120,117,97,108,32,111,102,102,101,110,99,101,115]}],"feature_segments":[0,0,0,154,168],"sorted_idx":[0,1,2,3,4,5,6,7,8,9,10,11,12,13,14,15,16,17,18,19,20,21,22,23,24,25,26,27,28,29,30,31,32,33,34,35,36,37,38,39,40,41,42,43,44,45,46,47,48,49,50,51,52,53,54,55,56,57,58,59,60,61,62,63,64,65,66,67,68,69,70,71,72,73,74,75,76,77,78,79,80,81,82,83,84,85,86,87,88,89,90,91,92,93,94,95,96,97,98,99,100,101,102,103,104,105,106,107,108,109,110,111,112,113,114,115,116,117,118,119,120,121,122,123,124,125,126,127,128,129,130,131,132,133,134,135,136,137,138,139,140,141,142,143,144,145,146,147,148,149,150,151,152,153,0,1,2,3,4,5,6,7,8,9,10,11,12,13]},"gbtree_model_param":{"num_parallel_tree":"1","num_trees":"200"},"iteration_indptr":[0,1,2,3,4,5,6,7,8,9,10,11,12,13,14,15,16,17,18,19,20,21,22,23,24,25,26,27,28,29,30,31,32,33,34,35,36,37,38,39,40,41,42,43,44,45,46,47,48,49,50,51,52,53,54,55,56,57,58,59,60,61,62,63,64,65,66,67,68,69,70,71,72,73,74,75,76,77,78,79,80,81,82,83,84,85,86,87,88,89,90,91,92,93,94,95,96,97,98,99,100,101,102,103,104,105,106,107,108,109,110,111,112,113,114,115,116,117,118,119,120,121,122,123,124,125,126,127,128,129,130,131,132,133,134,135,136,137,138,139,140,141,142,143,144,145,146,147,148,149,150,151,152,153,154,155,156,157,158,159,160,161,162,163,164,165,166,167,168,169,170,171,172,173,174,175,176,177,178,179,180,181,182,183,184,185,186,187,188,189,190,191,192,193,194,195,196,197,198,199,200],"tree_info":[0,0,0,0,0,0,0,0,0,0,0,0,0,0,0,0,0,0,0,0,0,0,0,0,0,0,0,0,0,0,0,0,0,0,0,0,0,0,0,0,0,0,0,0,0,0,0,0,0,0,0,0,0,0,0,0,0,0,0,0,0,0,0,0,0,0,0,0,0,0,0,0,0,0,0,0,0,0,0,0,0,0,0,0,0,0,0,0,0,0,0,0,0,0,0,0,0,0,0,0,0,0,0,0,0,0,0,0,0,0,0,0,0,0,0,0,0,0,0,0,0,0,0,0,0,0,0,0,0,0,0,0,0,0,0,0,0,0,0,0,0,0,0,0,0,0,0,0,0,0,0,0,0,0,0,0,0,0,0,0,0,0,0,0,0,0,0,0,0,0,0,0,0,0,0,0,0,0,0,0,0,0,0,0,0,0,0,0,0,0,0,0,0,0,0,0,0,0,0,0],"trees":[{"base_weights":[5.1266007E-8,7E-1,-2.976132E-1,7E-2,4.032632E-1,-1.1905938E-1,-3.7408933E-1,5.710507E-1,2.677162E-1,1.0782486E-2,-1.8393487E-1,-3.0992228E-1,-4.220643E-1,3.4755036E-1,7E-2,3.149656E-1,7.684213E-3,6.256791E-2,-1.520242E-2,-1.5023525E-1,-2.1732597E-1,-3.410017E-1,-2.7069274E-1,-4.4659877E-1,-4.148172E-1,2.8537974E-2,4.0454406E-2,2.725138E-1,3.5505403E-2,-7.211329E-3,1.2994432E-1,-8.286655E-2,5.2537948E-2,-2.5337592E-1,-9.815762E-2,-2.0889583E-1,-2.806509E-2,-2.7197543E-1,-3.750521E-1,-2.5422588E-1,-3.1857067E-1,-4.028153E-2,-4.6014395E-2,-3.8127592E-1,-4.2571524E-1,3.3006635E-2,2.1090202E-2,1.0663322E-2,1.5131985E-2,-1.4659101E-2,-5.0143437E-3,1.2244067E-2,-8.700884E-3,-2.806509E-2,-2.3773486E-2,-3.5136123E-3,-1.29417395E-2,-2.1530593E-2,-1.6148655E-2,-2.3863016E-2,-3.9981525E-2,-4.0484052E-2,-3.2901313E-2,-2.791508E-2,-2.0322612E-2,-2.9026046E-2,-3.7002414E-2,-4.0162202E-2,-3.2777872E-2,-3.9679367E-2,-4.468798E-2],"categories":[0,1,2,3,4,5,7,8,9,12,0,1,2,3,4,5,7,8,9,11,12,0,1,3,5,7,9,12,2,4,0,5,7,12,4,1,9,0,5,7,5,7,12,3],"categories_nodes":[0,1,2,5,6,10,21,23,24,40],"categories_segments":[0,10,21,28,30,34,35,37,40,43],"categories_sizes":[10,11,7,2,4,1,2,3,3,1],"default_left":[1,1,1,0,0,1,1,0,0,0,1,0,0,0,0,0,0,0,0,0,0,1,0,1,1,0,0,0,0,0,0,0,0,0,0,0,0,0,0,0,1,0,0,0,0,0,0,0,0,0,0,0,0,0,0,0,0,0,0,0,0,0,0,0,0,0,0,0,0,0,0],"id":0,"left_children":[1,3,5,-1,7,9,11,13,15,17,19,21,23,25,-1,27,-1,29,31,33,35,37,39,41,43,-1,-1,45,-1,-1,47,49,51,53,55,57,-1,59,61,63,65,-1,-1,67,69,-1,-1,-1,-1,-1,-1,-1,-1,-1,-1,-1,-1,-1,-1,-1,-1,-1,-1,-1,-1,-1,-1,-1,-1,-1,-1],"loss_changes":[1.8405889E3,5.2007446E1,8.124542E1,0E0,1.3406723E1,1.5051693E1,1.2698364E1,1.1649376E1,2.9670315E0,8.0323166E-1,1.3080101E0,2.0859985E0,2.3825073E-1,3.5676575E-1,0E0,3.551407E-1,0E0,1.8188162E0,1.8277303E0,3.1775541E0,2.596531E-1,2.2319412E0,5.454788E-1,1.2902069E-1,5.149231E-1,0E0,0E0,4.0294552E-1,0E0,0E0,5.027032E-2,4.0845597E-1,1.9557652E0,1.8346786E-2,7.7914333E-1,1.263218E-1,0E0,1.3184586E0,7.751694E-1,7.01149E-1,1.8305779E-1,0E0,0E0,3.7332916E-1,6.733856E-1,0E0,0E0,0E0,0E0,0E0,0E0,0E0,0E0,0E0,0E0,0E0,0E0,0E0,0E0,0E0,0E0,0E0,0E0,0E0,0E0,0E0,0E0,0E0,0E0,0E0,0E0],"parents":[2147483647,0,0,1,1,2,2,4,4,5,5,6,6,7,7,8,8,9,9,10,10,11,11,12,12,13,13,15,15,17,17,18,18,19,19,20,20,21,21,22,22,23,23,24,24,27,27,30,30,31,31,32,32,33,33,34,34,35,35,37,37,38,38,39,39,40,40,43,43,44,44],"right_children":[2,4,6,-1,8,10,12,14,16,18,20,22,24,26,-1,28,-1,30,32,34,36,38,40,42,44,-1,-1,46,-1,-1,48,50,52,54,56,58,-1,60,62,64,66,-1,-1,68,70,-1,-1,-1,-1,-1,-1,-1,-1,-1,-1,-1,-1,-1,-1,-1,-1,-1,-1,-1,-1,-1,-1,-1,-1,-1,-1],"split_conditions":[1E-45,1E-45,1E-45,7E-2,4E0,1E-45,1E-45,2E0,8E0,3E0,1E-45,5E0,2E0,1E0,7E-2,6E0,7.684213E-3,1E0,6E0,3E0,8E0,1E-45,8E0,1E-45,1E-45,2.8537974E-2,4.0454406E-2,5E0,3.5505403E-2,-7.211329E-3,2E0,4E0,8E0,1E0,5E0,7E0,-2.806509E-2,4E0,3E0,7E0,1E-45,-4.028153E-2,-4.6014395E-2,7E0,5E0,3.3006635E-2,2.1090202E-2,1.0663322E-2,1.5131985E-2,-1.4659101E-2,-5.0143437E-3,1.2244067E-2,-8.700884E-3,-2.806509E-2,-2.3773486E-2,-3.5136123E-3,-1.29417395E-2,-2.1530593E-2,-1.6148655E-2,-2.3863016E-2,-3.9981525E-2,-4.0484052E-2,-3.2901313E-2,-2.791508E-2,-2.0322612E-2,-2.9026046E-2,-3.7002414E-2,-4.0162202E-2,-3.2777872E-2,-3.9679367E-2,-4.468798E-2],"split_indices":[3,3,3,0,0,3,3,0,0,0,3,0,0,0,0,0,0,0,0,0,0,3,0,3,3,0,0,0,0,0,0,0,0,0,0,0,0,0,0,0,3,0,0,0,0,0,0,0,0,0,0,0,0,0,0,0,0,0,0,0,0,0,0,0,0,0,0,0,0,0,0],"split_type":[1,1,1,0,0,1,1,0,0,0,1,0,0,0,0,0,0,0,0,0,0,1,0,1,1,0,0,0,0,0,0,0,0,0,0,0,0,0,0,0,1,0,0,0,0,0,0,0,0,0,0,0,0,0,0,0,0,0,0,0,0,0,0,0,0,0,0,0,0,0,0],"sum_hessian":[8.332906E3,2.3808303E3,5.952076E3,1.7856228E3,5.952076E2,1.7856228E3,4.166453E3,2.645367E2,3.306709E2,5.952076E2,1.1904152E3,1.7856228E3,2.3808303E3,1.3226836E2,1.3226836E2,2.645367E2,6.613418E1,1.9840253E2,3.9680505E2,5.952076E2,5.952076E2,9.920127E2,7.936101E2,5.290734E2,1.851757E3,6.613418E1,6.613418E1,1.3226836E2,1.3226836E2,6.613418E1,1.3226836E2,1.9840253E2,1.9840253E2,1.9840253E2,3.9680505E2,5.290734E2,6.613418E1,3.306709E2,6.613418E2,5.952076E2,1.9840253E2,1.3226836E2,3.9680505E2,4.6293924E2,1.3888177E3,6.613418E1,6.613418E1,6.613418E1,6.613418E1,6.613418E1,1.3226836E2,1.3226836E2,6.613418E1,6.613418E1,1.3226836E2,1.3226836E2,2.645367E2,4.6293924E2,6.613418E1,2.645367E2,6.613418E1,3.9680505E2,2.645367E2,3.9680505E2,1.9840253E2,1.3226836E2,6.613418E1,3.306709E2,1.3226836E2,5.952076E2,7.936101E2],"tree_param":{"num_deleted":"0","num_feature":"4","num_nodes":"71","size_leaf_vector":"1"}},{"base_weights":[1.2351793E-3,6.691458E-1,-2.9164708E-1,7E-1,3.696222E-1,-1.1459533E-1,-3.694389E-1,7E-2,6.678457E-1,5.167273E-1,2.477001E-1,1.0209011E-2,-1.7817457E-1,-3.040783E-1,-4.188601E-1,6.1265016E-1,7E-2,3.1912056E-1,7E-1,2.9005295E-1,7.251753E-3,5.910637E-2,-1.4514739E-2,-1.4504468E-1,-2.1122323E-1,-3.3563086E-1,-2.6453036E-1,-4.4432452E-1,-4.1136166E-1,5.112992E-2,6.361031E-1,2.6369799E-2,3.6932837E-2,7E-2,5.9471425E-2,2.521264E-1,3.2556202E-2,-6.9087246E-3,1.219734E-1,-7.9469435E-2,4.9643792E-2,-2.4720056E-1,-9.424812E-2,-2.0284438E-1,-2.7459895E-2,-2.6583213E-1,-3.7042242E-1,-2.4800734E-1,-3.1287092E-1,-3.9899103E-2,-4.584325E-2,-3.7681428E-1,-4.2263773E-1,7E-2,5.6387763E-2,3.036137E-2,1.9635255E-2,1.0032939E-2,1.4173237E-2,-1.4150068E-2,-4.791608E-3,1.1496335E-2,-8.348339E-3,-2.7459895E-2,-2.3155516E-2,-3.3524141E-3,-1.2465293E-2,-2.091976E-2,-1.561138E-2,-2.324245E-2,-3.959289E-2,-4.0106002E-2,-3.2342996E-2,-2.7301153E-2,-1.9723408E-2,-2.8423084E-2,-3.6532696E-2,-3.9774273E-2,-3.2219756E-2,-3.9276134E-2,-4.4461105E-2],"categories":[0,1,2,3,4,5,7,8,9,12,0,1,2,3,4,5,7,8,9,11,12,0,1,3,5,7,9,12,0,1,2,3,4,5,7,8,9,11,12,13,2,4,0,5,7,12,4,1,9,0,5,7,5,7,12,3],"categories_nodes":[0,1,2,3,5,6,12,25,27,28,48],"categories_segments":[0,10,21,28,40,42,46,47,49,52,55],"categories_sizes":[10,11,7,12,2,4,1,2,3,3,1],"default_left":[1,1,1,1,0,1,1,0,0,0,0,0,1,0,0,0,0,0,0,0,0,0,0,0,0,1,0,1,1,0,0,0,0,0,0,0,0,0,0,0,0,0,0,0,0,0,0,0,1,0,0,0,0,0,0,0,0,0,0,0,0,0,0,0,0,0,0,0,0,0,0,0,0,0,0,0,0,0,0,0,0],"id":1,"left_children":[1,3,5,7,9,11,13,-1,15,17,19,21,23,25,27,29,-1,31,33,35,-1,37,39,41,43,45,47,49,51,-1,53,-1,-1,-1,-1,55,-1,-1,57,59,61,63,65,67,-1,69,71,73,75,-1,-1,77,79,-1,-1,-1,-1,-1,-1,-1,-1,-1,-1,-1,-1,-1,-1,-1,-1,-1,-1,-1,-1,-1,-1,-1,-1,-1,-1,-1,-1],"loss_changes":[1.6264224E3,6.470044E1,7.956357E1,1.7089844E-1,1.0980492E1,1.4012938E1,1.2841919E1,0E0,1.562561E0,1.011972E1,2.5059738E0,7.224445E-1,1.2502365E0,2.072937E0,2.5326538E-1,5.2012634E-1,0E0,2.8637314E-1,3.0734253E-1,2.8684998E-1,0E0,1.6254529E0,1.6593925E0,3.0248432E0,2.541256E-1,2.232521E0,5.402374E-1,1.4133453E-1,5.3326416E-1,0E0,9.946289E-1,0E0,0E0,0E0,0E0,3.3350563E-1,0E0,0E0,4.350829E-2,3.8033068E-1,1.7527516E0,1.9774437E-2,7.2315216E-1,1.2147331E-1,0E0,1.3111172E0,7.88887E-1,6.841316E-1,1.864376E-1,0E0,0E0,3.8239288E-1,6.9976807E-1,0E0,0E0,0E0,0E0,0E0,0E0,0E0,0E0,0E0,0E0,0E0,0E0,0E0,0E0,0E0,0E0,0E0,0E0,0E0,0E0,0E0,0E0,0E0,0E0,0E0,0E0,0E0,0E0],"parents":[2147483647,0,0,1,1,2,2,3,3,4,4,5,5,6,6,8,8,9,9,10,10,11,11,12,12,13,13,14,14,15,15,17,17,18,18,19,19,21,21,22,22,23,23,24,24,25,25,26,26,27,27,28,28,30,30,35,35,38,38,39,39,40,40,41,41,42,42,43,43,45,45,46,46,47,47,48,48,51,51,52,52],"right_children":[2,4,6,8,10,12,14,-1,16,18,20,22,24,26,28,30,-1,32,34,36,-1,38,40,42,44,46,48,50,52,-1,54,-1,-1,-1,-1,56,-1,-1,58,60,62,64,66,68,-1,70,72,74,76,-1,-1,78,80,-1,-1,-1,-1,-1,-1,-1,-1,-1,-1,-1,-1,-1,-1,-1,-1,-1,-1,-1,-1,-1,-1,-1,-1,-1,-1,-1,-1],"split_conditions":[1E-45,1E-45,1E-45,1E-45,4E0,1E-45,1E-45,7E-2,5E0,2E0,8E0,3E0,1E-45,5E0,2E0,1E0,7E-2,1E0,3E0,6E0,7.251753E-3,1E0,6E0,3E0,8E0,1E-45,8E0,1E-45,1E-45,5.112992E-2,3E0,2.6369799E-2,3.6932837E-2,7E-2,5.9471425E-2,5E0,3.2556202E-2,-6.9087246E-3,2E0,4E0,8E0,1E0,5E0,7E0,-2.7459895E-2,4E0,3E0,7E0,1E-45,-3.9899103E-2,-4.584325E-2,7E0,5E0,7E-2,5.6387763E-2,3.036137E-2,1.9635255E-2,1.0032939E-2,1.4173237E-2,-1.4150068E-2,-4.791608E-3,1.1496335E-2,-8.348339E-3,-2.7459895E-2,-2.3155516E-2,-3.3524141E-3,-1.2465293E-2,-2.091976E-2,-1.561138E-2,-2.324245E-2,-3.959289E-2,-4.0106002E-2,-3.2342996E-2,-2.7301153E-2,-1.9723408E-2,-2.8423084E-2,-3.6532696E-2,-3.9774273E-2,-3.2219756E-2,-3.9276134E-2,-4.4461105E-2],"split_indices":[3,3,3,3,0,3,3,0,0,0,0,0,3,0,0,0,0,0,0,0,0,0,0,0,0,3,0,3,3,0,0,0,0,0,0,0,0,0,0,0,0,0,0,0,0,0,0,0,3,0,0,0,0,0,0,0,0,0,0,0,0,0,0,0,0,0,0,0,0,0,0,0,0,0,0,0,0,0,0,0,0],"split_type":[1,1,1,1,0,1,1,0,0,0,0,0,1,0,0,0,0,0,0,0,0,0,0,0,0,1,0,1,1,0,0,0,0,0,0,0,0,0,0,0,0,0,0,0,0,0,0,0,1,0,0,0,0,0,0,0,0,0,0,0,0,0,0,0,0,0,0,0,0,0,0,0,0,0,0,0,0,0,0,0,0],"sum_hessian":[8.31223E3,2.533458E3,5.7787725E3,1.9150953E3,6.183626E2,1.764744E3,4.0140283E3,1.2767302E3,6.383651E2,2.787721E2,3.3959055E2,5.958823E2,1.1688617E3,1.7313861E3,2.282642E3,3.5464728E2,2.8371783E2,1.3691318E2,1.4185892E2,2.7294623E2,6.6644325E1,1.9964468E2,3.9623764E2,5.8640454E2,5.824571E2,9.5887744E2,7.725087E2,5.0600635E2,1.7766357E3,7.092946E1,2.8371783E2,6.804872E1,6.886445E1,7.092946E1,7.092946E1,1.3589726E2,1.3704895E2,6.565899E1,1.3398569E2,1.9677856E2,1.9945909E2,1.934649E2,3.9293967E2,5.181532E2,6.430391E1,3.2184103E2,6.370364E2,5.802926E2,1.9221611E2,1.27046295E2,3.7896008E2,4.4565677E2,1.330979E3,1.4185892E2,1.4185892E2,6.835347E1,6.754379E1,6.684317E1,6.7142525E1,6.517179E1,1.3160677E2,1.3389784E2,6.556125E1,6.430391E1,1.29161E2,1.3180447E2,2.611352E2,4.530784E2,6.507478E1,2.5829883E2,6.3542202E1,3.8106165E2,2.5597473E2,3.858814E2,1.9441122E2,1.2848431E2,6.3731796E1,3.176536E2,1.2800317E2,5.7205273E2,7.589262E2],"tree_param":{"num_deleted":"0","num_feature":"4","num_nodes":"81","size_leaf_vector":"1"}},{"base_weights":[1.663951E-3,6.0084146E-1,-2.8562835E-1,6.823203E-1,3.3943358E-1,-1.10248946E-1,-3.6467382E-1,6.011505E-1,7E-1,4.687708E-1,2.2964661E-1,9.6672475E-3,-1.724943E-1,-2.9816782E-1,-4.1554448E-1,6.279552E-2,5.452107E-1,7E-2,6.326777E-1,2.9384962E-1,6.2910384E-1,2.6778224E-1,6.8465853E-3,5.585646E-2,-1.3856571E-2,-1.3996053E-1,-2.051648E-1,-3.301646E-1,-2.5834692E-1,-4.4195953E-1,-4.0779117E-1,5.7234234E-1,4.5676637E-2,5.488185E-2,6.514936E-1,2.4419073E-2,3.3836428E-2,7E-2,5.3253155E-2,2.3373993E-1,2.9941157E-2,-6.6168346E-3,1.1458242E-1,-7.618583E-2,4.6923872E-2,-2.410264E-1,-9.045835E-2,-1.9684683E-1,-2.6851593E-2,-2.5966707E-1,-3.656773E-1,-2.4178767E-1,-3.0709773E-1,-3.9505076E-2,-4.5664754E-2,-3.722359E-1,-4.1945064E-1,4.617256E-2,6.2324744E-2,7E-2,5.971284E-2,2.8001843E-2,1.8307205E-2,9.445752E-3,1.3287911E-2,-1.36518E-2,-4.577745E-3,1.0802432E-2,-8.007272E-3,-2.6851593E-2,-2.2539552E-2,-3.1980926E-3,-1.2000565E-2,-2.0313587E-2,-1.50839165E-2,-2.2623735E-2,-3.9192926E-2,-3.9716158E-2,-3.177609E-2,-2.6684E-2,-1.9130236E-2,-2.7815705E-2,-3.605214E-2,-3.9374508E-2,-3.1653296E-2,-3.8861E-2,-4.422514E-2],"categories":[0,1,2,3,4,5,7,8,9,12,0,1,2,3,4,5,7,8,9,11,12,0,1,3,5,7,9,12,2,4,0,5,7,12,0,1,2,3,4,5,7,8,9,11,12,13,0,1,2,3,4,5,7,8,9,11,12,13,4,1,9,0,5,7,5,7,12,3],"categories_nodes":[0,1,2,5,6,7,8,12,27,29,30,52],"categories_segments":[0,10,21,28,30,34,46,58,59,61,64,67],"categories_sizes":[10,11,7,2,4,12,12,1,2,3,3,1],"default_left":[1,1,1,0,0,1,1,1,1,0,0,0,1,0,0,0,0,0,0,0,0,0,0,0,0,0,0,1,0,1,1,0,0,0,0,0,0,0,0,0,0,0,0,0,0,0,0,0,0,0,0,0,1,0,0,0,0,0,0,0,0,0,0,0,0,0,0,0,0,0,0,0,0,0,0,0,0,0,0,0,0,0,0,0,0,0,0],"id":2,"left_children":[1,3,5,7,9,11,13,15,17,19,21,23,25,27,29,-1,31,-1,33,35,37,39,-1,41,43,45,47,49,51,53,55,57,-1,-1,59,-1,-1,-1,-1,61,-1,-1,63,65,67,69,71,73,-1,75,77,79,81,-1,-1,83,85,-1,-1,-1,-1,-1,-1,-1,-1,-1,-1,-1,-1,-1,-1,-1,-1,-1,-1,-1,-1,-1,-1,-1,-1,-1,-1,-1,-1,-1,-1],"loss_changes":[1.429972E3,5.711029E1,7.779852E1,7.774353E0,9.00457E0,1.30333E1,1.2968994E1,1.024292E0,1.2338257E0,8.051323E0,2.127224E0,6.500085E-1,1.192936E0,2.0562592E0,2.6837158E-1,0E0,4.65271E-1,0E0,2.4256897E-1,2.3198414E-1,8.83461E-1,2.3357964E-1,0E0,1.4538648E0,1.5064182E0,2.8750734E0,2.48209E-1,2.22921E0,5.339775E-1,1.5380096E-1,5.51178E-1,9.949341E-1,0E0,0E0,4.1235352E-1,0E0,0E0,0E0,0E0,2.7781868E-1,0E0,0E0,3.775382E-2,3.5376167E-1,1.5719057E0,2.1017075E-2,6.704793E-1,1.16565704E-1,0E0,1.3016243E0,8.014679E-1,6.662102E-1,1.8935204E-1,0E0,0E0,3.9081573E-1,7.2605896E-1,0E0,0E0,0E0,0E0,0E0,0E0,0E0,0E0,0E0,0E0,0E0,0E0,0E0,0E0,0E0,0E0,0E0,0E0,0E0,0E0,0E0,0E0,0E0,0E0,0E0,0E0,0E0,0E0,0E0,0E0],"parents":[2147483647,0,0,1,1,2,2,3,3,4,4,5,5,6,6,7,7,8,8,9,9,10,10,11,11,12,12,13,13,14,14,16,16,18,18,19,19,20,20,21,21,23,23,24,24,25,25,26,26,27,27,28,28,29,29,30,30,31,31,34,34,39,39,42,42,43,43,44,44,45,45,46,46,47,47,49,49,50,50,51,51,52,52,55,55,56,56],"right_children":[2,4,6,8,10,12,14,16,18,20,22,24,26,28,30,-1,32,-1,34,36,38,40,-1,42,44,46,48,50,52,54,56,58,-1,-1,60,-1,-1,-1,-1,62,-1,-1,64,66,68,70,72,74,-1,76,78,80,82,-1,-1,84,86,-1,-1,-1,-1,-1,-1,-1,-1,-1,-1,-1,-1,-1,-1,-1,-1,-1,-1,-1,-1,-1,-1,-1,-1,-1,-1,-1,-1,-1,-1],"split_conditions":[1E-45,1E-45,1E-45,4E0,4E0,1E-45,1E-45,1E-45,1E-45,2E0,8E0,3E0,1E-45,5E0,2E0,6.279552E-2,3E0,7E-2,5E0,1E0,3E0,6E0,6.8465853E-3,1E0,6E0,3E0,8E0,1E-45,8E0,1E-45,1E-45,1E0,4.5676637E-2,5.488185E-2,7E0,2.4419073E-2,3.3836428E-2,7E-2,5.3253155E-2,5E0,2.9941157E-2,-6.6168346E-3,2E0,4E0,8E0,1E0,5E0,7E0,-2.6851593E-2,4E0,3E0,7E0,1E-45,-3.9505076E-2,-4.5664754E-2,7E0,5E0,4.617256E-2,6.2324744E-2,7E-2,5.971284E-2,2.8001843E-2,1.8307205E-2,9.445752E-3,1.3287911E-2,-1.36518E-2,-4.577745E-3,1.0802432E-2,-8.007272E-3,-2.6851593E-2,-2.2539552E-2,-3.1980926E-3,-1.2000565E-2,-2.0313587E-2,-1.50839165E-2,-2.2623735E-2,-3.9192926E-2,-3.9716158E-2,-3.177609E-2,-2.6684E-2,-1.9130236E-2,-2.7815705E-2,-3.605214E-2,-3.9374508E-2,-3.1653296E-2,-3.8861E-2,-4.422514E-2],"split_indices":[3,3,3,0,0,3,3,3,3,0,0,0,3,0,0,0,0,0,0,0,0,0,0,0,0,0,0,3,0,3,3,0,0,0,0,0,0,0,0,0,0,0,0,0,0,0,0,0,0,0,0,0,3,0,0,0,0,0,0,0,0,0,0,0,0,0,0,0,0,0,0,0,0,0,0,0,0,0,0,0,0,0,0,0,0,0,0],"split_type":[1,1,1,0,0,1,1,1,1,0,0,0,1,0,0,0,0,0,0,0,0,0,0,0,0,0,0,1,0,1,1,0,0,0,0,0,0,0,0,0,0,0,0,0,0,0,0,0,0,0,0,0,1,0,0,0,0,0,0,0,0,0,0,0,0,0,0,0,0,0,0,0,0,0,0,0,0,0,0,0,0,0,0,0,0,0,0],"sum_hessian":[8.305076E3,2.6912036E3,5.6138726E3,2.0504758E3,6.407278E2,1.7448789E3,3.8689937E3,9.1041833E2,1.1400575E3,2.9267044E2,3.4805734E2,5.9652106E2,1.1483579E3,1.6797823E3,2.1892114E3,6.085792E2,3.0183908E2,7.60724E2,3.793335E2,1.4132237E2,1.5134808E2,2.8092798E2,6.712937E1,2.0082503E2,3.9569604E2,5.7803033E2,5.703275E2,9.2734955E2,7.5243274E2,4.8405658E2,1.7051548E3,2.267952E2,7.50439E1,7.50439E1,3.042896E2,6.9867004E1,7.145537E1,7.60724E1,7.527567E1,1.3934375E2,1.4158421E2,6.520692E1,1.356181E2,1.952338E2,2.0046225E2,1.8876672E2,3.8926364E2,5.0776535E2,6.2562176E1,3.1344006E2,6.139095E2,5.661034E2,1.8632935E2,1.2207703E2,3.6197955E2,4.2921194E2,1.2759427E3,7.465038E1,1.521448E2,1.521448E2,1.521448E2,7.0460625E1,6.888313E1,6.7517166E1,6.8100945E1,6.4256096E1,1.309777E2,1.3544601E2,6.501623E1,6.2562176E1,1.26204544E2,1.3136331E2,2.5790033E2,4.4369858E2,6.406678E1,2.5236456E2,6.1075516E1,3.6608127E2,2.4782822E2,3.7548904E2,1.9061433E2,1.24883835E2,6.1445507E1,3.0526724E2,1.2394472E2,5.5002026E2,7.2592255E2],"tree_param":{"num_deleted":"0","num_feature":"4","num_nodes":"87","size_leaf_vector":"1"}},{"base_weights":[1.6039126E-3,5.4004097E-1,-2.7956387E-1,6.090018E-1,3.1189638E-1,-1.0602083E-1,-3.59796E-1,5.373285E-1,6.653134E-1,4.25385E-1,2.1329947E-1,9.15534E-3,-1.668994E-1,-2.9219726E-1,-4.1211578E-1,5.5961598E-2,4.9039602E-1,7E-1,6.0255885E-1,2.7126417E-1,5.6215787E-1,2.4777736E-1,6.4666555E-3,5.280308E-2,-1.3226762E-2,-1.3498569E-1,-1.9915777E-1,-3.2460737E-1,-2.5215018E-1,-4.395015E-1,-4.0410438E-1,5.133258E-1,4.14735E-2,5.90638E-2,7E-2,6.385843E-1,4.5538667E-1,2.2656685E-2,3.1095603E-2,6.354952E-2,4.7982533E-2,2.1709308E-1,2.7609168E-2,-6.3354336E-3,1.0771862E-1,-7.3014006E-2,4.436611E-2,-2.3486097E-1,-8.678748E-2,-1.9090995E-1,-2.6240919E-2,-2.5348783E-1,-3.6081862E-1,-2.3557481E-1,-3.012569E-1,-3.909939E-2,-4.5478687E-2,-3.675423E-1,-4.1615203E-1,4.1903E-2,5.5599976E-2,6.963056E-2,5.7833333E-2,5.002749E-2,4.0543836E-2,2.5886571E-2,1.709159E-2,8.898136E-3,1.2468874E-2,-1.3164559E-2,-4.3724813E-3,1.0157524E-2,-7.6775337E-3,-2.6240919E-2,-2.192633E-2,-3.0503965E-3,-1.1547705E-2,-1.971277E-2,-1.456664E-2,-2.2007639E-2,-3.8781594E-2,-3.931448E-2,-3.1201115E-2,-2.6064394E-2,-1.8543737E-2,-2.7204633E-2,-3.556094E-2,-3.896291E-2,-3.1079037E-2,-3.843395E-2,-4.397981E-2],"categories":[0,1,2,3,4,5,7,8,9,12,0,1,2,3,4,5,7,8,9,11,12,0,1,3,5,7,9,12,2,4,0,5,7,12,0,1,2,3,4,5,7,8,9,11,12,13,0,1,2,3,4,5,7,8,9,10,11,12,13,4,1,9,0,5,7,5,7,12,0,1,2,3,4,5,6,7,8,9,11,12,13,0,1,2,3,4,5,6,7,8,9,10,11,12,3],"categories_nodes":[0,1,2,5,6,7,8,12,27,29,30,35,36,54],"categories_segments":[0,10,21,28,30,34,46,59,60,62,65,68,81,94],"categories_sizes":[10,11,7,2,4,12,13,1,2,3,3,13,13,1],"default_left":[1,1,1,0,0,1,1,1,1,0,0,0,1,0,0,0,0,0,0,0,0,0,0,0,0,0,0,1,0,1,1,0,0,0,0,1,1,0,0,0,0,0,0,0,0,0,0,0,0,0,0,0,0,0,1,0,0,0,0,0,0,0,0,0,0,0,0,0,0,0,0,0,0,0,0,0,0,0,0,0,0,0,0,0,0,0,0,0,0,0,0],"id":3,"left_children":[1,3,5,7,9,11,13,15,17,19,21,23,25,27,29,-1,31,33,35,37,39,41,-1,43,45,47,49,51,53,55,57,59,-1,-1,-1,61,63,-1,-1,-1,-1,65,-1,-1,67,69,71,73,75,77,-1,79,81,83,85,-1,-1,87,89,-1,-1,-1,-1,-1,-1,-1,-1,-1,-1,-1,-1,-1,-1,-1,-1,-1,-1,-1,-1,-1,-1,-1,-1,-1,-1,-1,-1,-1,-1,-1,-1],"loss_changes":[1.2577689E3,4.465094E1,7.5957184E1,8.471436E0,7.334549E0,1.2110689E1,1.3078674E1,7.3773193E-1,5.7594604E0,6.3292427E0,1.8139305E0,5.850244E-1,1.1362858E0,2.0359192E0,2.8344727E-1,0E0,3.416748E-1,1.4735413E0,4.019165E0,1.8947315E-1,6.7313004E-1,1.9158554E-1,0E0,1.3013906E0,1.3674107E0,2.728611E0,2.4193382E-1,2.2220993E0,5.267563E-1,1.6634369E-1,5.68573E-1,7.372322E-1,0E0,0E0,0E0,1.8597717E0,1.6339493E-1,0E0,0E0,0E0,0E0,2.3278475E-1,0E0,0E0,3.2839417E-2,3.287071E-1,1.4106132E0,2.2082329E-2,6.2101054E-1,1.1163139E-1,0E0,1.2900143E0,8.128052E-1,6.4749527E-1,1.9178009E-1,0E0,0E0,3.9855194E-1,7.5213623E-1,0E0,0E0,0E0,0E0,0E0,0E0,0E0,0E0,0E0,0E0,0E0,0E0,0E0,0E0,0E0,0E0,0E0,0E0,0E0,0E0,0E0,0E0,0E0,0E0,0E0,0E0,0E0,0E0,0E0,0E0,0E0,0E0],"parents":[2147483647,0,0,1,1,2,2,3,3,4,4,5,5,6,6,7,7,8,8,9,9,10,10,11,11,12,12,13,13,14,14,16,16,17,17,18,18,19,19,20,20,21,21,23,23,24,24,25,25,26,26,27,27,28,28,29,29,30,30,31,31,35,35,36,36,41,41,44,44,45,45,46,46,47,47,48,48,49,49,51,51,52,52,53,53,54,54,57,57,58,58],"right_children":[2,4,6,8,10,12,14,16,18,20,22,24,26,28,30,-1,32,34,36,38,40,42,-1,44,46,48,50,52,54,56,58,60,-1,-1,-1,62,64,-1,-1,-1,-1,66,-1,-1,68,70,72,74,76,78,-1,80,82,84,86,-1,-1,88,90,-1,-1,-1,-1,-1,-1,-1,-1,-1,-1,-1,-1,-1,-1,-1,-1,-1,-1,-1,-1,-1,-1,-1,-1,-1,-1,-1,-1,-1,-1,-1,-1],"split_conditions":[1E-45,1E-45,1E-45,4E0,4E0,1E-45,1E-45,1E-45,1E-45,2E0,8E0,3E0,1E-45,5E0,2E0,5.5961598E-2,3E0,6E0,8E0,1E0,3E0,6E0,6.4666555E-3,1E0,6E0,3E0,8E0,1E-45,8E0,1E-45,1E-45,1E0,4.14735E-2,5.90638E-2,7E-2,1E-45,1E-45,2.2656685E-2,3.1095603E-2,6.354952E-2,4.7982533E-2,5E0,2.7609168E-2,-6.3354336E-3,2E0,4E0,8E0,1E0,5E0,7E0,-2.6240919E-2,4E0,3E0,7E0,1E-45,-3.909939E-2,-4.5478687E-2,7E0,5E0,4.1903E-2,5.5599976E-2,6.963056E-2,5.7833333E-2,5.002749E-2,4.0543836E-2,2.5886571E-2,1.709159E-2,8.898136E-3,1.2468874E-2,-1.3164559E-2,-4.3724813E-3,1.0157524E-2,-7.6775337E-3,-2.6240919E-2,-2.192633E-2,-3.0503965E-3,-1.1547705E-2,-1.971277E-2,-1.456664E-2,-2.2007639E-2,-3.8781594E-2,-3.931448E-2,-3.1201115E-2,-2.6064394E-2,-1.8543737E-2,-2.7204633E-2,-3.556094E-2,-3.896291E-2,-3.1079037E-2,-3.843395E-2,-4.397981E-2],"split_indices":[3,3,3,0,0,3,3,3,3,0,0,0,3,0,0,0,0,0,0,0,0,0,0,0,0,0,0,3,0,3,3,0,0,0,0,3,3,0,0,0,0,0,0,0,0,0,0,0,0,0,0,0,0,0,3,0,0,0,0,0,0,0,0,0,0,0,0,0,0,0,0,0,0,0,0,0,0,0,0,0,0,0,0,0,0,0,0,0,0,0,0],"split_type":[1,1,1,0,0,1,1,1,1,0,0,0,1,0,0,0,0,0,0,0,0,0,0,0,0,0,0,1,0,1,1,0,0,0,0,1,1,0,0,0,0,0,0,0,0,0,0,0,0,0,0,0,0,0,1,0,0,0,0,0,0,0,0,0,0,0,0,0,0,0,0,0,0,0,0,0,0,0,0,0,0,0,0,0,0,0,0,0,0,0,0],"sum_hessian":[8.306077E3,2.8491077E3,5.4569697E3,2.1865225E3,6.625853E2,1.7259788E3,3.7309907E3,9.6667883E2,1.2198435E3,3.0648993E2,3.560954E2,5.971259E2,1.1288529E3,1.6306832E3,2.1003076E3,6.4802075E2,3.186581E2,4.0794144E2,8.119021E2,1.4550864E2,1.609813E2,2.8850482E2,6.7590576E1,2.0194675E2,3.9517917E2,5.7006415E2,5.5878876E2,8.9735114E2,7.333321E2,4.6316995E2,1.6371377E3,2.4010696E2,7.855115E1,1.6317657E2,2.4476486E2,6.4956055E2,1.6234155E2,7.159411E1,7.391453E1,8.158829E1,7.9393E1,1.4261734E2,1.458875E2,6.477689E1,1.3716985E2,1.9376436E2,2.0141481E2,1.8429639E2,3.8576776E2,4.9788416E2,6.090463E1,3.0544727E2,5.919039E2,5.5260443E2,1.8072766E2,1.1734839E2,3.4582156E2,4.1356384E2,1.2235739E3,7.8178E1,1.6192896E2,3.2635315E2,3.2320743E2,8.0753265E1,8.158829E1,7.2461525E1,7.015581E1,6.815793E1,6.901192E1,6.3384842E1,1.3037952E2,1.3691713E2,6.449768E1,6.090463E1,1.2339176E2,1.3094386E2,2.5482388E2,4.3477652E2,6.3107628E1,2.4671916E2,5.8728107E1,3.5182684E2,2.4007704E2,3.656019E2,1.870025E2,1.21457954E2,5.9269714E1,2.9348096E2,1.2008289E2,5.290558E2,6.9451807E2],"tree_param":{"num_deleted":"0","num_feature":"4","num_nodes":"91","size_leaf_vector":"1"}},{"base_weights":[1.4378544E-3,4.8753506E-1,-2.7346072E-1,5.464447E-1,2.87253E-1,-1.0191133E-1,-3.5480753E-1,6.256051E-1,5.060445E-1,3.8735107E-1,1.9844484E-1,8.671549E-3,-1.6139483E-1,-2.8617316E-1,-4.085725E-1,5.368903E-1,7E-2,3.8038727E-2,5.210658E-1,2.50981E-1,5.049316E-1,2.2973E-1,6.110125E-3,4.993252E-2,-1.2624214E-2,-1.3012274E-1,-1.93209E-1,-3.1896392E-1,-2.4594778E-1,-4.36948E-1,-4.003003E-1,6.320451E-2,4.977742E-1,5.3590566E-1,4.1349623E-1,2.1058513E-2,2.865516E-2,5.6658298E-2,4.346236E-2,2.0196782E-1,2.5518999E-2,-6.064305E-3,1.0133538E-1,-6.99521E-2,4.1959465E-2,-2.2871193E-1,-8.323445E-2,-1.8504027E-1,-2.562861E-2,-2.4730186E-1,-3.5584855E-1,-2.2937644E-1,-2.953545E-1,-3.8682044E-2,-4.5284804E-2,-3.627349E-1,-4.127401E-1,2.7069885E-2,5.530093E-2,5.7516355E-2,4.9500134E-2,4.521978E-2,3.700153E-2,2.3981681E-2,1.5976056E-2,8.386841E-3,1.1709891E-2,-1.2688565E-2,-4.1755512E-3,9.557351E-3,-7.3589603E-3,-2.562861E-2,-2.13166E-2,-2.909092E-3,-1.1106811E-2,-1.9118002E-2,-1.4059871E-2,-2.1394892E-2,-3.8358964E-2,-3.8900938E-2,-3.0618653E-2,-2.5443086E-2,-1.7964527E-2,-2.6590595E-2,-3.5059355E-2,-3.8539454E-2,-3.049754E-2,-3.7995007E-2,-4.372486E-2],"categories":[0,1,2,3,4,5,7,8,9,12,0,1,2,3,4,5,7,8,9,11,12,0,1,3,5,7,9,12,0,1,2,3,4,5,7,8,9,10,11,12,13,2,4,0,5,7,12,4,1,9,0,5,7,5,7,12,0,1,2,3,4,5,6,7,8,9,11,12,13,0,1,2,3,4,5,6,7,8,9,10,11,12,3],"categories_nodes":[0,1,2,3,5,6,12,27,29,30,33,34,52],"categories_segments":[0,10,21,28,41,43,47,48,50,53,56,69,82],"categories_sizes":[10,11,7,13,2,4,1,2,3,3,13,13,1],"default_left":[1,1,1,1,0,1,1,0,0,0,0,0,1,0,0,0,0,0,0,0,0,0,0,0,0,0,0,1,0,1,1,0,0,1,1,0,0,0,0,0,0,0,0,0,0,0,0,0,0,0,0,0,1,0,0,0,0,0,0,0,0,0,0,0,0,0,0,0,0,0,0,0,0,0,0,0,0,0,0,0,0,0,0,0,0,0,0,0,0],"id":4,"left_children":[1,3,5,7,9,11,13,15,17,19,21,23,25,27,29,31,-1,-1,33,35,37,39,-1,41,43,45,47,49,51,53,55,-1,57,59,61,-1,-1,-1,-1,63,-1,-1,65,67,69,71,73,75,-1,77,79,81,83,-1,-1,85,87,-1,-1,-1,-1,-1,-1,-1,-1,-1,-1,-1,-1,-1,-1,-1,-1,-1,-1,-1,-1,-1,-1,-1,-1,-1,-1,-1,-1,-1,-1,-1,-1],"loss_changes":[1.1105566E3,3.5264282E1,7.404645E1,7.098999E0,6.0075455E0,1.1242937E1,1.3170044E1,1.12734375E1,2.7094727E0,5.0158615E0,1.5531282E0,5.2669716E-1,1.0804844E0,2.0121613E0,2.984619E-1,1.9345093E0,0E0,0E0,1.970581E0,1.558876E-1,4.9598694E-1,1.5817356E-1,0E0,1.165733E0,1.2411025E0,2.5857792E0,2.3535919E-1,2.21109E0,5.1859665E-1,1.7893219E-1,5.8558655E-1,0E0,5.2804337E0,1.6477051E0,1.20204926E-1,0E0,0E0,0E0,0E0,1.9608307E-1,0E0,0E0,2.8629184E-2,3.0511916E-1,1.2666073E0,2.2974968E-2,5.746224E-1,1.0667992E-1,0E0,1.2763538E0,8.228226E-1,6.2807655E-1,1.9372368E-1,0E0,0E0,4.0556335E-1,7.778778E-1,0E0,0E0,0E0,0E0,0E0,0E0,0E0,0E0,0E0,0E0,0E0,0E0,0E0,0E0,0E0,0E0,0E0,0E0,0E0,0E0,0E0,0E0,0E0,0E0,0E0,0E0,0E0,0E0,0E0,0E0,0E0,0E0],"parents":[2147483647,0,0,1,1,2,2,3,3,4,4,5,5,6,6,7,7,8,8,9,9,10,10,11,11,12,12,13,13,14,14,15,15,18,18,19,19,20,20,21,21,23,23,24,24,25,25,26,26,27,27,28,28,29,29,30,30,32,32,33,33,34,34,39,39,42,42,43,43,44,44,45,45,46,46,47,47,49,49,50,50,51,51,52,52,55,55,56,56],"right_children":[2,4,6,8,10,12,14,16,18,20,22,24,26,28,30,32,-1,-1,34,36,38,40,-1,42,44,46,48,50,52,54,56,-1,58,60,62,-1,-1,-1,-1,64,-1,-1,66,68,70,72,74,76,-1,78,80,82,84,-1,-1,86,88,-1,-1,-1,-1,-1,-1,-1,-1,-1,-1,-1,-1,-1,-1,-1,-1,-1,-1,-1,-1,-1,-1,-1,-1,-1,-1,-1,-1,-1,-1,-1,-1],"split_conditions":[1E-45,1E-45,1E-45,1E-45,4E0,1E-45,1E-45,7E0,1E0,2E0,8E0,3E0,1E-45,5E0,2E0,2E0,7E-2,3.8038727E-2,8E0,1E0,3E0,6E0,6.110125E-3,1E0,6E0,3E0,8E0,1E-45,8E0,1E-45,1E-45,6.320451E-2,3E0,1E-45,1E-45,2.1058513E-2,2.865516E-2,5.6658298E-2,4.346236E-2,5E0,2.5518999E-2,-6.064305E-3,2E0,4E0,8E0,1E0,5E0,7E0,-2.562861E-2,4E0,3E0,7E0,1E-45,-3.8682044E-2,-4.5284804E-2,7E0,5E0,2.7069885E-2,5.530093E-2,5.7516355E-2,4.9500134E-2,4.521978E-2,3.700153E-2,2.3981681E-2,1.5976056E-2,8.386841E-3,1.1709891E-2,-1.2688565E-2,-4.1755512E-3,9.557351E-3,-7.3589603E-3,-2.562861E-2,-2.13166E-2,-2.909092E-3,-1.1106811E-2,-1.9118002E-2,-1.4059871E-2,-2.1394892E-2,-3.8358964E-2,-3.8900938E-2,-3.0618653E-2,-2.5443086E-2,-1.7964527E-2,-2.6590595E-2,-3.5059355E-2,-3.8539454E-2,-3.049754E-2,-3.7995007E-2,-4.372486E-2],"split_indices":[3,3,3,3,0,3,3,0,0,0,0,0,3,0,0,0,0,0,0,0,0,0,0,0,0,0,0,3,0,3,3,0,0,3,3,0,0,0,0,0,0,0,0,0,0,0,0,0,0,0,0,0,3,0,0,0,0,0,0,0,0,0,0,0,0,0,0,0,0,0,0,0,0,0,0,0,0,0,0,0,0,0,0,0,0,0,0,0,0],"split_type":[1,1,1,1,0,1,1,0,0,0,0,0,1,0,0,0,0,0,0,0,0,0,0,0,0,0,0,1,0,1,1,0,0,1,1,0,0,0,0,0,0,0,0,0,0,0,0,0,0,0,0,0,1,0,0,0,0,0,0,0,0,0,0,0,0,0,0,0,0,0,0,0,0,0,0,0,0,0,0,0,0,0,0,0,0,0,0,0,0],"sum_hessian":[8.308847E3,3.00117E3,5.307677E3,2.317722E3,6.83448E2,1.7079967E3,3.5996802E3,7.782764E2,1.5394453E3,3.1972058E2,3.6372742E2,5.976986E2,1.1102981E3,1.583968E3,2.0157123E3,6.0326825E2,1.7500816E2,1.6718835E2,1.372257E3,1.4948373E2,1.7023683E2,2.9569836E2,6.802906E1,2.030127E2,3.946859E2,5.62486E2,5.47812E2,8.6880817E2,7.1515985E2,4.4329498E2,1.5724174E3,1.7132973E2,4.3193854E2,1.202397E3,1.6986005E2,7.323469E1,7.624905E1,8.6941475E1,8.329536E1,1.4572696E2,1.499714E2,6.436778E1,1.3864493E2,1.9236655E2,2.0231937E2,1.800429E2,3.8244315E2,4.8848477E2,5.932723E1,2.9784296E2,5.709652E2,5.397626E2,1.7539732E2,1.128487E2,3.304463E2,3.986742E2,1.173743E3,8.566486E1,3.4627368E2,6.068817E2,5.9551526E2,8.48959E1,8.496414E1,7.436179E1,7.1365166E1,6.876712E1,6.98778E1,6.255588E1,1.2981067E2,1.3831497E2,6.4004395E1,5.932723E1,1.2071567E2,1.3054506E2,2.5189809E2,4.2628973E2,6.2195038E1,2.4134882E2,5.6494133E1,3.3826324E2,2.3270197E2,3.5619583E2,1.8356674E2,1.18198235E2,5.7199085E1,2.82266E2,1.16408195E2,5.091078E2,6.646353E2],"tree_param":{"num_deleted":"0","num_feature":"4","num_nodes":"89","size_leaf_vector":"1"}},{"base_weights":[1.2337012E-3,4.420567E-1,-2.6732612E-1,4.928217E-1,2.652253E-1,-9.792042E-2,-3.49711E-1,4.3510953E-1,5.376479E-1,3.540817E-1,1.8490309E-1,8.214258E-3,-1.5598512E-1,-2.801024E-1,-4.0491343E-1,4.6871677E-1,4.174283E-1,6.35647E-1,4.86987E-1,2.326862E-1,4.5614684E-1,2.1338525E-1,5.7753013E-3,4.7232118E-2,-1.2047816E-2,-1.2537383E-1,-1.8732487E-1,-3.132393E-1,-2.3974745E-1,-4.3429646E-1,-3.9637813E-1,5.6329465E-1,3.694441E-1,3.4784224E-2,4.3919954E-1,5.0005007E-1,7E-2,5.1307607E-1,3.7704077E-1,1.9604325E-2,2.6470765E-2,5.0865002E-2,3.954681E-2,1.8818097E-1,2.3637054E-2,-5.8032074E-3,9.5391124E-2,-6.6998094E-2,3.969386E-2,-2.2258677E-1,-7.9798E-2,-1.7924379E-1,-2.5015399E-2,-2.4111718E-1,-3.507693E-1,-2.2320025E-1,-2.893969E-1,-3.825308E-2,-4.508282E-2,-3.5781562E-1,-4.092135E-1,6.0360022E-2,5.168832E-2,2.5043732E-2,4.811383E-2,4.5967054E-2,3.9500277E-2,4.7378328E-2,5.4638803E-2,5.5426296E-2,4.6923764E-2,4.1071653E-2,3.3888873E-2,2.2259293E-2,1.49499625E-2,7.908957E-3,1.10054305E-2,-1.2223999E-2,-3.98669E-3,8.998113E-3,-7.0513696E-3,-2.5015399E-2,-2.0711087E-2,-2.7739317E-3,-1.0677959E-2,-1.8529909E-2,-1.3563918E-2,-2.0786257E-2,-3.7925087E-2,-3.847551E-2,-3.0029276E-2,-2.4820859E-2,-1.7393185E-2,-2.5974322E-2,-3.4547698E-2,-3.810416E-2,-2.9909385E-2,-3.7544236E-2,-4.346007E-2],"categories":[0,1,2,3,4,5,7,8,9,12,0,1,2,3,4,5,7,8,9,11,12,0,1,3,5,7,9,12,2,4,0,5,7,12,0,1,2,3,4,5,7,8,9,10,11,12,13,0,1,2,3,4,5,7,8,9,10,11,12,13,4,1,9,0,5,7,5,7,12,0,1,2,3,4,5,6,7,8,9,11,12,13,0,1,2,3,4,5,6,7,8,9,10,11,12,3],"categories_nodes":[0,1,2,5,6,7,8,12,27,29,30,37,38,56],"categories_segments":[0,10,21,28,30,34,47,60,61,63,66,69,82,95],"categories_sizes":[10,11,7,2,4,13,13,1,2,3,3,13,13,1],"default_left":[1,1,1,0,0,1,1,1,1,0,0,0,1,0,0,0,0,0,0,0,0,0,0,0,0,0,0,1,0,1,1,0,0,0,0,0,0,1,1,0,0,0,0,0,0,0,0,0,0,0,0,0,0,0,0,0,1,0,0,0,0,0,0,0,0,0,0,0,0,0,0,0,0,0,0,0,0,0,0,0,0,0,0,0,0,0,0,0,0,0,0,0,0,0,0,0,0,0,0],"id":5,"left_children":[1,3,5,7,9,11,13,15,17,19,21,23,25,27,29,31,33,35,37,39,41,43,-1,45,47,49,51,53,55,57,59,61,63,-1,65,67,-1,69,71,-1,-1,-1,-1,73,-1,-1,75,77,79,81,83,85,-1,87,89,91,93,-1,-1,95,97,-1,-1,-1,-1,-1,-1,-1,-1,-1,-1,-1,-1,-1,-1,-1,-1,-1,-1,-1,-1,-1,-1,-1,-1,-1,-1,-1,-1,-1,-1,-1,-1,-1,-1,-1,-1,-1,-1],"loss_changes":[9.843024E2,2.8125183E1,7.207358E1,6.0896606E0,4.960781E0,1.0427847E1,1.324231E1,4.4244385E-1,6.4998474E0,4.0230865E0,1.3347902E0,4.7431865E-1,1.0257072E0,1.984932E0,3.1344604E-1,3.191269E0,9.270706E-1,8.639435E0,2.4122772E0,1.2910748E-1,3.72303E-1,1.3136196E-1,0E0,1.0448968E0,1.126343E0,2.4468584E0,2.285099E-1,2.1962738E0,5.095711E-1,1.915741E-1,6.0188293E-1,3.1284332E-2,2.2661629E0,0E0,3.0619812E-1,7.758331E-2,0E0,1.0605469E0,8.94928E-2,0E0,0E0,0E0,0E0,1.6596317E-1,0E0,0E0,2.5010824E-2,2.8294754E-1,1.1379087E0,2.3700714E-2,5.311911E-1,1.0174656E-1,0E0,1.2606907E0,8.314743E-1,6.0806274E-1,1.9517612E-1,0E0,0E0,4.1181564E-1,8.0336E-1,0E0,0E0,0E0,0E0,0E0,0E0,0E0,0E0,0E0,0E0,0E0,0E0,0E0,0E0,0E0,0E0,0E0,0E0,0E0,0E0,0E0,0E0,0E0,0E0,0E0,0E0,0E0,0E0,0E0,0E0,0E0,0E0,0E0,0E0,0E0,0E0,0E0,0E0],"parents":[2147483647,0,0,1,1,2,2,3,3,4,4,5,5,6,6,7,7,8,8,9,9,10,10,11,11,12,12,13,13,14,14,15,15,16,16,17,17,18,18,19,19,20,20,21,21,23,23,24,24,25,25,26,26,27,27,28,28,29,29,30,30,31,31,32,32,34,34,35,35,37,37,38,38,43,43,46,46,47,47,48,48,49,49,50,50,51,51,53,53,54,54,55,55,56,56,59,59,60,60],"right_children":[2,4,6,8,10,12,14,16,18,20,22,24,26,28,30,32,34,36,38,40,42,44,-1,46,48,50,52,54,56,58,60,62,64,-1,66,68,-1,70,72,-1,-1,-1,-1,74,-1,-1,76,78,80,82,84,86,-1,88,90,92,94,-1,-1,96,98,-1,-1,-1,-1,-1,-1,-1,-1,-1,-1,-1,-1,-1,-1,-1,-1,-1,-1,-1,-1,-1,-1,-1,-1,-1,-1,-1,-1,-1,-1,-1,-1,-1,-1,-1,-1,-1,-1],"split_conditions":[1E-45,1E-45,1E-45,4E0,4E0,1E-45,1E-45,1E-45,1E-45,2E0,8E0,3E0,1E-45,5E0,2E0,2E0,1E0,7E0,8E0,1E0,3E0,6E0,5.7753013E-3,1E0,6E0,3E0,8E0,1E-45,8E0,1E-45,1E-45,1E0,3E0,3.4784224E-2,3E0,6E0,7E-2,1E-45,1E-45,1.9604325E-2,2.6470765E-2,5.0865002E-2,3.954681E-2,5E0,2.3637054E-2,-5.8032074E-3,2E0,4E0,8E0,1E0,5E0,7E0,-2.5015399E-2,4E0,3E0,7E0,1E-45,-3.825308E-2,-4.508282E-2,7E0,5E0,6.0360022E-2,5.168832E-2,2.5043732E-2,4.811383E-2,4.5967054E-2,3.9500277E-2,4.7378328E-2,5.4638803E-2,5.5426296E-2,4.6923764E-2,4.1071653E-2,3.3888873E-2,2.2259293E-2,1.49499625E-2,7.908957E-3,1.10054305E-2,-1.2223999E-2,-3.98669E-3,8.998113E-3,-7.0513696E-3,-2.5015399E-2,-2.0711087E-2,-2.7739317E-3,-1.0677959E-2,-1.8529909E-2,-1.3563918E-2,-2.0786257E-2,-3.7925087E-2,-3.847551E-2,-3.0029276E-2,-2.4820859E-2,-1.7393185E-2,-2.5974322E-2,-3.4547698E-2,-3.810416E-2,-2.9909385E-2,-3.7544236E-2,-4.346007E-2],"split_indices":[3,3,3,0,0,3,3,3,3,0,0,0,3,0,0,0,0,0,0,0,0,0,0,0,0,0,0,3,0,3,3,0,0,0,0,0,0,3,3,0,0,0,0,0,0,0,0,0,0,0,0,0,0,0,0,0,3,0,0,0,0,0,0,0,0,0,0,0,0,0,0,0,0,0,0,0,0,0,0,0,0,0,0,0,0,0,0,0,0,0,0,0,0,0,0,0,0,0,0],"split_type":[1,1,1,0,0,1,1,1,1,0,0,0,1,0,0,0,0,0,0,0,0,0,0,0,0,0,0,1,0,1,1,0,0,0,0,0,0,1,1,0,0,0,0,0,0,0,0,0,0,0,0,0,0,0,0,0,1,0,0,0,0,0,0,0,0,0,0,0,0,0,0,0,0,0,0,0,0,0,0,0,0,0,0,0,0,0,0,0,0,0,0,0,0,0,0,0,0,0,0],"sum_hessian":[8.312255E3,3.1466287E3,5.1656265E3,2.44339E3,7.032388E2,1.6908885E3,3.474738E3,1.0728458E3,1.3705442E3,3.3226385E2,3.7097488E2,5.9824097E2,1.0926476E3,1.5395212E3,1.9352167E3,3.610593E2,7.117865E2,4.6312436E2,9.074198E2,1.5325882E2,1.7900504E2,3.0252887E2,6.8446E1,2.0402573E2,3.942152E2,5.552774E2,5.373702E2,8.4165027E2,6.9787103E2,4.2438278E2,1.5108339E3,1.8250813E2,1.7855116E2,1.736705E2,5.38116E2,2.7542664E2,1.8769771E2,7.3042993E2,1.7698984E2,7.479326E1,7.846557E1,9.200965E1,8.699539E1,1.4868112E2,1.5384776E2,6.397861E1,1.4004712E2,1.910369E2,2.0317833E2,1.7599574E2,3.7928168E2,4.795441E2,5.7826077E1,2.9060806E2,5.510422E2,5.2754584E2,1.703252E2,1.0856684E2,3.1581595E2,3.845063E2,1.1263276E3,9.125407E1,9.125407E1,8.801549E1,9.0535675E1,3.6134717E2,1.7676886E2,1.8294719E2,9.247946E1,3.706013E2,3.5982864E2,8.8823006E1,8.816684E1,7.6166664E1,7.251445E1,6.934627E1,7.070085E1,6.1767147E1,1.2926974E2,1.3964322E2,6.3535114E1,5.7826077E1,1.1816966E2,1.3016583E2,2.4911586E2,4.182174E2,6.1326694E1,2.3623996E2,5.4368114E1,3.2535724E2,2.2568492E2,3.472474E2,1.8029843E2,1.15096725E2,5.5228462E1,2.7159467E2,1.1291162E2,4.901272E2,6.3620044E2],"tree_param":{"num_deleted":"0","num_feature":"4","num_nodes":"99","size_leaf_vector":"1"}},{"base_weights":[9.972724E-4,4.0232906E-1,-2.6116756E-1,4.4640094E-1,2.4543884E-1,-9.404788E-2,-3.4450945E-1,4.1429436E-1,5.0857383E-1,3.2476345E-1,1.7252207E-1,7.7817654E-3,-1.5067449E-1,-2.739921E-1,-4.011376E-1,3.9565876E-1,4.4983032E-1,6.6181266E-1,4.2703956E-1,2.161205E-1,4.141024E-1,1.9853044E-1,5.460648E-3,4.469019E-2,-1.1496727E-2,-1.207407E-1,-1.8151173E-1,-3.074391E-1,-2.3355697E-1,-4.3154487E-1,-3.9233747E-1,4.1038403E-1,3.6421365E-1,4.9648288E-1,4.245126E-2,4.914921E-2,7E-2,5.104693E-1,3.8293567E-1,1.827711E-2,2.4506388E-2,4.5930717E-2,3.6125686E-2,1.7557728E-1,2.1935673E-2,-5.551923E-3,8.9848734E-2,-6.415009E-2,3.7559763E-2,-2.164928E-1,-7.647664E-2,-1.7352648E-1,-2.4402043E-2,-2.3494129E-1,-3.45584E-1,-2.1705389E-1,-2.8339088E-1,-3.7812555E-1,-4.4872507E-2,-3.5278693E-1,-4.05571E-1,4.2490702E-2,3.947073E-2,3.8240883E-2,3.044935E-2,5.6978434E-2,4.181629E-2,5.6978434E-2,4.441619E-2,4.171812E-2,3.450605E-2,2.0696213E-2,1.4004095E-2,7.4618394E-3,1.03506185E-2,-1.1771021E-2,-3.8056602E-3,8.476383E-3,-6.7545706E-3,-2.4402043E-2,-2.0110482E-2,-2.6446858E-3,-1.0261188E-2,-1.7949138E-2,-1.3079012E-2,-2.018244E-2,-3.7480053E-2,-3.8038254E-2,-2.9433602E-2,-2.4198491E-2,-1.6830256E-2,-2.5356594E-2,-3.4026306E-2,-3.370134E-2,-4.1213624E-2,-3.765711E-2,-2.9315192E-2,-3.708175E-2,-4.31852E-2],"categories":[0,1,2,3,4,5,7,8,9,12,0,1,2,3,4,5,7,8,9,11,12,0,1,3,5,7,9,12,2,4,0,5,7,12,0,1,2,3,4,5,7,8,9,10,11,12,13,4,0,1,2,3,4,5,7,8,9,11,12,13,0,1,2,3,4,5,6,7,8,9,11,12,13,1,9,0,5,7,5,7,12,0,1,2,3,4,5,7,8,9,10,11,12,13,0,1,2,3,4,5,6,7,8,9,11,12,13,3],"categories_nodes":[0,1,2,5,6,8,12,15,16,27,29,30,31,37,56],"categories_segments":[0,10,21,28,30,34,47,48,60,73,75,78,81,94,107],"categories_sizes":[10,11,7,2,4,13,1,12,13,2,3,3,13,13,1],"default_left":[1,1,1,0,0,1,1,0,1,0,0,0,1,0,0,1,1,0,0,0,0,0,0,0,0,0,0,1,0,1,1,1,0,0,0,0,0,1,0,0,0,0,0,0,0,0,0,0,0,0,0,0,0,0,0,0,1,0,0,0,0,0,0,0,0,0,0,0,0,0,0,0,0,0,0,0,0,0,0,0,0,0,0,0,0,0,0,0,0,0,0,0,0,0,0,0,0,0,0],"id":6,"left_children":[1,3,5,7,9,11,13,15,17,19,21,23,25,27,29,31,33,35,37,39,41,43,-1,45,47,49,51,53,55,57,59,61,63,65,-1,-1,-1,67,69,-1,-1,-1,-1,71,-1,-1,73,75,77,79,81,83,-1,85,87,89,91,93,-1,95,97,-1,-1,-1,-1,-1,-1,-1,-1,-1,-1,-1,-1,-1,-1,-1,-1,-1,-1,-1,-1,-1,-1,-1,-1,-1,-1,-1,-1,-1,-1,-1,-1,-1,-1,-1,-1,-1,-1],"loss_changes":[8.7520044E2,2.2616394E1,7.00462E1,4.9089355E0,4.1259766E0,9.6631975E0,1.3294952E1,9.4558716E-1,1.0575043E1,3.2606392E0,1.1510353E0,4.2726257E-1,9.72105E-1,1.9544373E0,3.283081E-1,3.6975098E-1,4.7001648E-1,3.3624115E0,1.9019928E0,1.07568264E-1,2.8393555E-1,1.0968399E-1,0E0,9.37151E-1,1.0220861E0,2.3120918E0,2.214241E-1,2.1776276E0,4.9972916E-1,2.0420837E-1,6.175537E-1,4.3640137E-3,2.8182602E-1,8.9191055E-1,0E0,0E0,0E0,5.104408E-1,3.4491348E-1,0E0,0E0,0E0,0E0,1.4108658E-1,0E0,0E0,2.1892667E-2,2.621377E-1,1.022784E0,2.4270058E-2,4.9058843E-1,9.685612E-2,0E0,1.2431183E0,8.3872604E-1,5.87553E-1,1.9613647E-1,8.610725E-3,0E0,4.1727066E-1,8.283081E-1,0E0,0E0,0E0,0E0,0E0,0E0,0E0,0E0,0E0,0E0,0E0,0E0,0E0,0E0,0E0,0E0,0E0,0E0,0E0,0E0,0E0,0E0,0E0,0E0,0E0,0E0,0E0,0E0,0E0,0E0,0E0,0E0,0E0,0E0,0E0,0E0,0E0,0E0],"parents":[2147483647,0,0,1,1,2,2,3,3,4,4,5,5,6,6,7,7,8,8,9,9,10,10,11,11,12,12,13,13,14,14,15,15,16,16,17,17,18,18,19,19,20,20,21,21,23,23,24,24,25,25,26,26,27,27,28,28,29,29,30,30,31,31,32,32,33,33,37,37,38,38,43,43,46,46,47,47,48,48,49,49,50,50,51,51,53,53,54,54,55,55,56,56,57,57,59,59,60,60],"right_children":[2,4,6,8,10,12,14,16,18,20,22,24,26,28,30,32,34,36,38,40,42,44,-1,46,48,50,52,54,56,58,60,62,64,66,-1,-1,-1,68,70,-1,-1,-1,-1,72,-1,-1,74,76,78,80,82,84,-1,86,88,90,92,94,-1,96,98,-1,-1,-1,-1,-1,-1,-1,-1,-1,-1,-1,-1,-1,-1,-1,-1,-1,-1,-1,-1,-1,-1,-1,-1,-1,-1,-1,-1,-1,-1,-1,-1,-1,-1,-1,-1,-1,-1],"split_conditions":[1E-45,1E-45,1E-45,6E0,4E0,1E-45,1E-45,4E0,1E-45,2E0,8E0,3E0,1E-45,5E0,2E0,1E-45,1E-45,7E0,7E0,1E0,3E0,6E0,5.460648E-3,1E0,6E0,3E0,8E0,1E-45,8E0,1E-45,1E-45,1E-45,3E0,5E0,4.245126E-2,4.914921E-2,7E-2,1E-45,8E0,1.827711E-2,2.4506388E-2,4.5930717E-2,3.6125686E-2,5E0,2.1935673E-2,-5.551923E-3,2E0,4E0,8E0,1E0,5E0,7E0,-2.4402043E-2,4E0,3E0,7E0,1E-45,1E0,-4.4872507E-2,7E0,5E0,4.2490702E-2,3.947073E-2,3.8240883E-2,3.044935E-2,5.6978434E-2,4.181629E-2,5.6978434E-2,4.441619E-2,4.171812E-2,3.450605E-2,2.0696213E-2,1.4004095E-2,7.4618394E-3,1.03506185E-2,-1.1771021E-2,-3.8056602E-3,8.476383E-3,-6.7545706E-3,-2.4402043E-2,-2.0110482E-2,-2.6446858E-3,-1.0261188E-2,-1.7949138E-2,-1.3079012E-2,-2.018244E-2,-3.7480053E-2,-3.8038254E-2,-2.9433602E-2,-2.4198491E-2,-1.6830256E-2,-2.5356594E-2,-3.4026306E-2,-3.370134E-2,-4.1213624E-2,-3.765711E-2,-2.9315192E-2,-3.708175E-2,-4.31852E-2],"split_indices":[3,3,3,0,0,3,3,0,3,0,0,0,3,0,0,3,3,0,0,0,0,0,0,0,0,0,0,3,0,3,3,3,0,0,0,0,0,3,0,0,0,0,0,0,0,0,0,0,0,0,0,0,0,0,0,0,3,0,0,0,0,0,0,0,0,0,0,0,0,0,0,0,0,0,0,0,0,0,0,0,0,0,0,0,0,0,0,0,0,0,0,0,0,0,0,0,0,0,0],"split_type":[1,1,1,0,0,1,1,0,1,0,0,0,1,0,0,1,1,0,0,0,0,0,0,0,0,0,0,1,0,1,1,1,0,0,0,0,0,1,0,0,0,0,0,0,0,0,0,0,0,0,0,0,0,0,0,0,1,0,0,0,0,0,0,0,0,0,0,0,0,0,0,0,0,0,0,0,0,0,0,0,0,0,0,0,0,0,0,0,0,0,0,0,0,0,0,0,0,0,0],"sum_hessian":[8.316205E3,3.2857385E3,5.030467E3,2.563721E3,7.2201764E2,1.674612E3,3.3558547E3,1.6957078E3,8.680132E2,3.441598E2,3.7785785E2,5.9875476E2,1.0758573E3,1.4972329E3,1.8586217E3,1.120326E3,5.753816E2,2.989803E2,5.690329E2,1.5684433E2,1.8731546E2,3.090154E2,6.884245E1,2.0498859E2,3.9376614E2,5.4842004E2,5.274372E2,8.158101E2,6.8142285E2,4.063865E2,1.4522352E3,7.548101E2,3.65516E2,1.9586119E2,3.7952045E2,9.767303E1,2.0130727E2,1.9312708E2,3.7590582E2,7.627399E1,8.057034E1,9.681077E1,9.0504684E1,1.514878E2,1.5752762E2,6.3608414E1,1.4138017E2,1.897721E2,2.0399405E2,1.7214491E2,3.7627515E2,4.7103973E2,5.639748E1,2.8372488E2,5.320852E2,5.1592413E2,1.6549869E2,1.04492256E2,3.0189426E2,3.7102502E2,1.0812102E3,3.7827237E2,3.7653772E2,2.760173E2,8.9498695E1,9.7930595E1,9.7930595E1,9.7930595E1,9.519649E1,1.9215283E2,1.8375299E2,7.788109E1,7.3606705E1,6.989693E1,7.1483246E1,6.101669E1,1.287554E2,1.4090538E2,6.3088673E1,5.639748E1,1.1574743E2,1.2980528E2,2.4646988E2,4.105392E2,6.05005E1,2.3138008E2,5.2344814E1,3.1307672E2,2.190085E2,3.3873456E2,1.7718959E2,1.1214566E2,5.3353024E1,5.2246128E1,5.2246128E1,2.614405E2,1.0958453E2,4.7206686E2,6.091433E2],"tree_param":{"num_deleted":"0","num_feature":"4","num_nodes":"99","size_leaf_vector":"1"}},{"base_weights":[7.0052024E-4,3.6723486E-1,-2.5499433E-1,4.0569475E-1,2.2758773E-1,-9.0293154E-2,-3.3920792E-1,3.7746793E-1,4.5990315E-1,2.9875877E-1,1.6117232E-1,7.372762E-3,-1.4546673E-1,-2.6784945E-1,-3.972462E-1,3.6115602E-1,4.0840754E-1,5.910504E-1,3.886764E-1,2.010674E-1,3.7752727E-1,1.849869E-1,5.164753E-3,4.229628E-2,-1.0969824E-2,-1.1622482E-1,-1.7577547E-1,-3.01569E-1,-2.27384E-1,-4.2869726E-1,-3.8817805E-1,3.740093E-2,3.3357567E-1,4.4882435E-1,3.863257E-2,4.4456046E-2,6.582892E-2,4.6082726E-1,3.500565E-1,1.7062353E-2,2.273245E-2,4.1681457E-2,3.311408E-2,1.6402471E-1,2.0391895E-2,-5.3101894E-3,8.4675275E-2,-6.1405677E-2,3.554861E-2,-2.1043748E-1,-7.32687E-2,-1.6789381E-1,-2.3789285E-2,-2.2878186E-1,-3.4029573E-1,-2.1094476E-1,-2.773433E-1,-3.736495E-1,-4.4653613E-2,-3.4765154E-1,-4.0181136E-1,3.495445E-2,2.8072638E-2,5.1128723E-2,3.8106367E-2,5.1128723E-2,4.0369835E-2,3.8003035E-2,3.166632E-2,1.9273007E-2,1.3130485E-2,7.0431544E-3,9.741126E-3,-1.1329726E-2,-3.6321809E-3,7.989111E-3,-6.4683533E-3,-2.3789285E-2,-1.9515496E-2,-2.5211337E-3,-9.856493E-3,-1.7376265E-2,-1.2605383E-2,-1.9584132E-2,-3.7023984E-2,-3.7589207E-2,-2.8832287E-2,-2.3576763E-2,-1.627625E-2,-2.4738165E-2,-3.349554E-2,-3.3165015E-2,-4.0865254E-2,-3.7198376E-2,-2.871563E-2,-3.6607664E-2,-4.290001E-2],"categories":[0,1,2,3,4,5,7,8,9,12,0,1,2,3,4,5,7,8,9,11,12,0,1,3,5,7,9,12,2,4,0,5,7,12,0,1,2,3,4,5,7,8,9,10,11,12,13,4,0,1,2,3,4,5,7,8,9,11,12,13,0,1,2,3,4,5,6,7,8,9,11,12,13,1,9,0,5,7,5,7,12,0,1,2,3,4,5,6,7,8,9,11,12,13,3],"categories_nodes":[0,1,2,5,6,8,12,15,16,27,29,30,37,56],"categories_segments":[0,10,21,28,30,34,47,48,60,73,75,78,81,94],"categories_sizes":[10,11,7,2,4,13,1,12,13,2,3,3,13,1],"default_left":[1,1,1,0,0,1,1,0,1,0,0,0,1,0,0,1,1,0,0,0,0,0,0,0,0,0,0,1,0,1,1,0,0,0,0,0,0,1,0,0,0,0,0,0,0,0,0,0,0,0,0,0,0,0,0,0,1,0,0,0,0,0,0,0,0,0,0,0,0,0,0,0,0,0,0,0,0,0,0,0,0,0,0,0,0,0,0,0,0,0,0,0,0,0,0,0,0],"id":7,"left_children":[1,3,5,7,9,11,13,15,17,19,21,23,25,27,29,31,33,35,37,39,41,43,-1,45,47,49,51,53,55,57,59,-1,61,63,-1,-1,-1,65,67,-1,-1,-1,-1,69,-1,-1,71,73,75,77,79,81,-1,83,85,87,89,91,-1,93,95,-1,-1,-1,-1,-1,-1,-1,-1,-1,-1,-1,-1,-1,-1,-1,-1,-1,-1,-1,-1,-1,-1,-1,-1,-1,-1,-1,-1,-1,-1,-1,-1,-1,-1,-1,-1],"loss_changes":[7.800551E2,1.8277374E1,6.797296E1,3.9277039E0,3.4536934E0,8.9467945E0,1.332782E1,7.449188E-1,8.300964E0,2.666933E0,9.956665E-1,3.8497132E-1,9.198189E-1,1.9208221E0,3.4313965E-1,2.887268E-1,3.6455536E-1,2.854332E0,1.4958649E0,9.011173E-2,2.1952629E-1,9.202862E-2,0E0,8.409828E-1,9.2737716E-1,2.181693E0,2.1414948E-1,2.1552658E0,4.8910904E-1,2.1643066E-1,6.3243103E-1,0E0,2.2260284E-1,6.803856E-1,0E0,0E0,0E0,3.8223267E-1,2.715721E-1,0E0,0E0,0E0,0E0,1.2041998E-1,0E0,0E0,1.9197822E-2,2.4263579E-1,9.197165E-1,2.4684906E-2,4.5268178E-1,9.201908E-2,0E0,1.223711E0,8.4449005E-1,5.66658E-1,1.9661427E-1,1.3908386E-2,0E0,4.2191696E-1,8.5272217E-1,0E0,0E0,0E0,0E0,0E0,0E0,0E0,0E0,0E0,0E0,0E0,0E0,0E0,0E0,0E0,0E0,0E0,0E0,0E0,0E0,0E0,0E0,0E0,0E0,0E0,0E0,0E0,0E0,0E0,0E0,0E0,0E0,0E0,0E0,0E0,0E0],"parents":[2147483647,0,0,1,1,2,2,3,3,4,4,5,5,6,6,7,7,8,8,9,9,10,10,11,11,12,12,13,13,14,14,15,15,16,16,17,17,18,18,19,19,20,20,21,21,23,23,24,24,25,25,26,26,27,27,28,28,29,29,30,30,32,32,33,33,37,37,38,38,43,43,46,46,47,47,48,48,49,49,50,50,51,51,53,53,54,54,55,55,56,56,57,57,59,59,60,60],"right_children":[2,4,6,8,10,12,14,16,18,20,22,24,26,28,30,32,34,36,38,40,42,44,-1,46,48,50,52,54,56,58,60,-1,62,64,-1,-1,-1,66,68,-1,-1,-1,-1,70,-1,-1,72,74,76,78,80,82,-1,84,86,88,90,92,-1,94,96,-1,-1,-1,-1,-1,-1,-1,-1,-1,-1,-1,-1,-1,-1,-1,-1,-1,-1,-1,-1,-1,-1,-1,-1,-1,-1,-1,-1,-1,-1,-1,-1,-1,-1,-1,-1],"split_conditions":[1E-45,1E-45,1E-45,6E0,4E0,1E-45,1E-45,4E0,1E-45,2E0,8E0,3E0,1E-45,5E0,2E0,1E-45,1E-45,7E0,7E0,1E0,3E0,6E0,5.164753E-3,1E0,6E0,3E0,8E0,1E-45,8E0,1E-45,1E-45,3.740093E-2,3E0,5E0,3.863257E-2,4.4456046E-2,6.582892E-2,1E-45,8E0,1.7062353E-2,2.273245E-2,4.1681457E-2,3.311408E-2,5E0,2.0391895E-2,-5.3101894E-3,2E0,4E0,8E0,1E0,5E0,7E0,-2.3789285E-2,4E0,3E0,7E0,1E-45,1E0,-4.4653613E-2,7E0,5E0,3.495445E-2,2.8072638E-2,5.1128723E-2,3.8106367E-2,5.1128723E-2,4.0369835E-2,3.8003035E-2,3.166632E-2,1.9273007E-2,1.3130485E-2,7.0431544E-3,9.741126E-3,-1.1329726E-2,-3.6321809E-3,7.989111E-3,-6.4683533E-3,-2.3789285E-2,-1.9515496E-2,-2.5211337E-3,-9.856493E-3,-1.7376265E-2,-1.2605383E-2,-1.9584132E-2,-3.7023984E-2,-3.7589207E-2,-2.8832287E-2,-2.3576763E-2,-1.627625E-2,-2.4738165E-2,-3.349554E-2,-3.3165015E-2,-4.0865254E-2,-3.7198376E-2,-2.871563E-2,-3.6607664E-2,-4.290001E-2],"split_indices":[3,3,3,0,0,3,3,0,3,0,0,0,3,0,0,3,3,0,0,0,0,0,0,0,0,0,0,3,0,3,3,0,0,0,0,0,0,3,0,0,0,0,0,0,0,0,0,0,0,0,0,0,0,0,0,0,3,0,0,0,0,0,0,0,0,0,0,0,0,0,0,0,0,0,0,0,0,0,0,0,0,0,0,0,0,0,0,0,0,0,0,0,0,0,0,0,0],"split_type":[1,1,1,0,0,1,1,0,1,0,0,0,1,0,0,1,1,0,0,0,0,0,0,0,0,0,0,1,0,1,1,0,0,0,0,0,0,1,0,0,0,0,0,0,0,0,0,0,0,0,0,0,0,0,0,0,1,0,0,0,0,0,0,0,0,0,0,0,0,0,0,0,0,0,0,0,0,0,0,0,0,0,0,0,0,0,0,0,0,0,0,0,0,0,0,0,0],"sum_hessian":[8.321169E3,3.419268E3,4.9019004E3,2.6794277E3,7.398403E2,1.659127E3,3.2427737E3,1.7671951E3,9.122327E2,3.554452E2,3.8439508E2,5.992415E2,1.0598854E3,1.4569985E3,1.785775E3,1.1654316E3,6.017634E2,3.1849722E2,5.9373553E2,1.6025012E2,1.9519507E2,3.151757E2,6.921941E1,2.0590366E2,3.9333786E2,5.4189703E2,5.179884E2,7.912242E2,6.657744E2,3.8929828E2,1.3964768E3,7.863889E2,3.7904266E2,2.0578505E2,3.9597836E2,1.0259349E2,2.1590373E2,2.0319263E2,3.905429E2,7.768088E1,8.256924E1,1.0136107E2,9.3834E1,1.5415445E2,1.6102124E2,6.325625E1,1.426474E2,1.8856902E2,2.0476886E2,1.6848083E2,3.7341617E2,4.629505E2,5.5037914E1,2.771764E2,5.140478E2,5.048685E2,1.6090591E2,1.0065135E2,2.8864694E2,3.5819714E2,1.0382797E3,2.867769E2,9.226579E1,1.0367254E2,1.0211251E2,1.0367254E2,9.952008E1,2.0033862E2,1.9020425E2,7.950972E1,7.464472E1,7.042042E1,7.222699E1,6.030269E1,1.2826633E2,1.4210487E2,6.2663982E1,5.5037914E1,1.13442924E2,1.2946239E2,2.4395378E2,4.0323615E2,5.9714355E1,2.2675716E2,5.0419235E1,3.0139148E2,2.1265631E2,3.3063605E2,1.7423245E2,1.0933776E2,5.156815E1,5.0514698E1,5.013665E1,2.5177847E2,1.0641867E2,4.5488242E2,5.833972E2],"tree_param":{"num_deleted":"0","num_feature":"4","num_nodes":"97","size_leaf_vector":"1"}},{"base_weights":[3.923431E-4,3.3619332E-1,-2.4881232E-1,3.6994913E-1,2.1141934E-1,-1.1765588E-1,-3.5416478E-1,4.1757628E-1,3.4492412E-1,2.7556112E-1,1.5074253E-1,6.9858655E-3,-1.6647413E-1,-2.8194818E-1,-3.9323688E-1,3.635841E-1,5.8503103E-2,2.8709877E-1,3.6072308E-1,1.8734513E-1,3.4545255E-1,1.7260306E-1,4.88633E-3,4.004056E-2,-1.0466184E-2,-1.11827284E-1,-1.9576506E-1,-3.712849E-2,-2.4109484E-1,-4.2574584E-1,-3.8389993E-1,4.2923346E-1,3.3620107E-1,2.6043463E-2,3.1105068E-1,3.7144557E-1,2.914426E-1,1.5947692E-2,2.1124426E-2,3.798749E-2,3.0445522E-2,1.5340962E-1,1.8986449E-2,-5.0777546E-3,7.98409E-2,-5.8762647E-2,3.365248E-2,-2.0442766E-1,-7.017248E-2,-1.854857E-1,-2.8154057E-1,-2.6604265E-1,-1.9247244E-1,-3.6906382E-1,-4.4425886E-2,-3.4241247E-1,-3.9793384E-1,4.609877E-2,3.9312076E-2,1.7677454E-2,3.729577E-2,3.3900388E-2,2.804395E-2,4.021516E-2,3.38635E-2,3.1937357E-2,2.6014466E-2,1.7973246E-2,1.2322116E-2,6.6507324E-3,9.173104E-3,-1.090021E-2,-3.4660057E-3,7.5335703E-3,-6.192513E-3,-2.3177873E-2,-1.8926749E-2,-2.4030672E-3,-9.463873E-3,-1.6235087E-2,-2.0923018E-2,-2.3177873E-2,-3.2955807E-2,-2.2059321E-2,-3.1023687E-2,-1.4529544E-2,-2.4119785E-2,-3.2619987E-2,-4.050594E-2,-3.6728088E-2,-2.8111367E-2,-3.612216E-2,-4.2604294E-2],"categories":[0,1,2,3,4,5,7,8,9,12,0,1,2,3,4,5,7,8,9,11,12,0,1,5,7,9,12,0,1,2,3,4,5,7,8,9,10,11,12,13,2,3,4,0,5,7,12,3,4,0,5,7,5,7,12,0,1,2,3,4,5,6,7,8,9,10,11,12,0,1,2,3,4,5,6,7,8,9,11,12,13,0,1,2,3,4,5,6,7,8,9,10,11,12,3,3,1],"categories_nodes":[0,1,2,3,5,6,12,29,30,34,35,36,49,50,51],"categories_segments":[0,10,21,27,40,43,47,49,52,55,68,81,94,95,96],"categories_sizes":[10,11,6,13,3,4,2,3,3,13,13,13,1,1,1],"default_left":[1,1,1,1,0,1,1,0,0,0,0,0,1,0,0,0,0,0,0,0,0,0,0,0,0,0,0,0,0,1,1,0,0,0,1,1,1,0,0,0,0,0,0,0,0,0,0,0,0,1,1,1,0,0,0,0,0,0,0,0,0,0,0,0,0,0,0,0,0,0,0,0,0,0,0,0,0,0,0,0,0,0,0,0,0,0,0,0,0,0,0,0,0],"id":8,"left_children":[1,3,5,7,9,11,13,15,17,19,21,23,25,27,29,31,-1,33,35,37,39,41,-1,43,45,47,49,-1,51,53,55,57,59,-1,61,63,65,-1,-1,-1,-1,67,-1,-1,69,71,73,75,77,79,81,83,85,87,-1,89,91,-1,-1,-1,-1,-1,-1,-1,-1,-1,-1,-1,-1,-1,-1,-1,-1,-1,-1,-1,-1,-1,-1,-1,-1,-1,-1,-1,-1,-1,-1,-1,-1,-1,-1,-1,-1],"loss_changes":[6.96941E2,1.4864349E1,6.601462E1,3.1825562E0,2.9075966E0,1.2967817E1,7.3680725E0,8.4362335E0,1.5732269E0,2.1989803E0,8.6372185E-1,3.4694776E-1,2.4291763E0,3.319748E0,3.5784912E-1,1.1608276E0,0E0,1.7365646E-1,9.5970154E-1,7.586336E-2,1.7176628E-1,7.756138E-2,0E0,7.550702E-1,8.4135246E-1,2.05581E0,8.2561874E-1,0E0,7.2979736E-1,2.2853851E-1,6.465149E-1,5.968094E-2,2.9633026E0,0E0,8.027077E-2,1.1144104E0,8.9416504E-2,0E0,0E0,0E0,0E0,1.03159666E-1,0E0,0E0,1.6863763E-2,2.243855E-1,8.273762E-1,2.4960995E-2,4.1734147E-1,4.5602036E-1,1.7358398E-1,7.8100586E-1,4.751463E-1,1.9067764E-2,0E0,4.2570877E-1,8.764343E-1,0E0,0E0,0E0,0E0,0E0,0E0,0E0,0E0,0E0,0E0,0E0,0E0,0E0,0E0,0E0,0E0,0E0,0E0,0E0,0E0,0E0,0E0,0E0,0E0,0E0,0E0,0E0,0E0,0E0,0E0,0E0,0E0,0E0,0E0,0E0,0E0],"parents":[2147483647,0,0,1,1,2,2,3,3,4,4,5,5,6,6,7,7,8,8,9,9,10,10,11,11,12,12,13,13,14,14,15,15,17,17,18,18,19,19,20,20,21,21,23,23,24,24,25,25,26,26,28,28,29,29,30,30,31,31,32,32,34,34,35,35,36,36,41,41,44,44,45,45,46,46,47,47,48,48,49,49,50,50,51,51,52,52,53,53,55,55,56,56],"right_children":[2,4,6,8,10,12,14,16,18,20,22,24,26,28,30,32,-1,34,36,38,40,42,-1,44,46,48,50,-1,52,54,56,58,60,-1,62,64,66,-1,-1,-1,-1,68,-1,-1,70,72,74,76,78,80,82,84,86,88,-1,90,92,-1,-1,-1,-1,-1,-1,-1,-1,-1,-1,-1,-1,-1,-1,-1,-1,-1,-1,-1,-1,-1,-1,-1,-1,-1,-1,-1,-1,-1,-1,-1,-1,-1,-1,-1,-1],"split_conditions":[1E-45,1E-45,1E-45,1E-45,4E0,1E-45,1E-45,7E0,2E0,2E0,8E0,3E0,1E-45,3E0,2E0,2E0,5.8503103E-2,1E0,8E0,1E0,3E0,6E0,4.88633E-3,1E0,6E0,3E0,8E0,-3.712849E-2,7E0,1E-45,1E-45,1E0,3E0,2.6043463E-2,1E-45,1E-45,1E-45,1.5947692E-2,2.1124426E-2,3.798749E-2,3.0445522E-2,5E0,1.8986449E-2,-5.0777546E-3,2E0,4E0,8E0,1E0,5E0,1E-45,1E-45,1E-45,8E0,1E0,-4.4425886E-2,7E0,5E0,4.609877E-2,3.9312076E-2,1.7677454E-2,3.729577E-2,3.3900388E-2,2.804395E-2,4.021516E-2,3.38635E-2,3.1937357E-2,2.6014466E-2,1.7973246E-2,1.2322116E-2,6.6507324E-3,9.173104E-3,-1.090021E-2,-3.4660057E-3,7.5335703E-3,-6.192513E-3,-2.3177873E-2,-1.8926749E-2,-2.4030672E-3,-9.463873E-3,-1.6235087E-2,-2.0923018E-2,-2.3177873E-2,-3.2955807E-2,-2.2059321E-2,-3.1023687E-2,-1.4529544E-2,-2.4119785E-2,-3.2619987E-2,-4.050594E-2,-3.6728088E-2,-2.8111367E-2,-3.612216E-2,-4.2604294E-2],"split_indices":[3,3,3,3,0,3,3,0,0,0,0,0,3,0,0,0,0,0,0,0,0,0,0,0,0,0,0,0,0,3,3,0,0,0,3,3,3,0,0,0,0,0,0,0,0,0,0,0,0,3,3,3,0,0,0,0,0,0,0,0,0,0,0,0,0,0,0,0,0,0,0,0,0,0,0,0,0,0,0,0,0,0,0,0,0,0,0,0,0,0,0,0,0],"split_type":[1,1,1,1,0,1,1,0,0,0,0,0,1,0,0,0,0,0,0,0,0,0,0,0,0,0,0,0,0,1,1,0,0,0,1,1,1,0,0,0,0,0,0,0,0,0,0,0,0,1,1,1,0,0,0,0,0,0,0,0,0,0,0,0,0,0,0,0,0,0,0,0,0,0,0,0,0,0,0,0,0,0,0,0,0,0,0,0,0,0,0,0,0],"sum_hessian":[8.326329E3,3.5467573E3,4.779572E3,2.7899988E3,7.567585E2,2.1299944E3,2.6495774E3,9.556105E2,1.8343883E3,3.661539E2,3.906046E2,5.997027E2,1.5302917E3,9.33119E2,1.7164584E3,7.250158E2,2.3059465E2,3.9775327E2,1.436635E3,1.6348541E2,2.0266849E2,3.2102676E2,6.957783E1,2.0677342E2,3.929293E2,5.35692E2,9.9459973E2,2.9027264E2,6.428464E2,3.730373E2,1.343421E3,2.0908061E2,5.159352E2,1.9383844E2,2.0391483E2,1.2403113E3,1.963237E2,7.901769E1,8.446772E1,1.0567521E2,9.699328E1,1.566883E2,1.6433849E2,6.2921246E1,1.4385217E2,1.8742464E2,2.0550465E2,1.6499455E2,3.7069745E2,8.909862E2,1.03613525E2,4.219005E2,2.2094586E2,9.699596E1,2.7604132E2,3.4599106E2,9.9743E2,1.04993576E2,1.04087036E2,9.77534E1,4.1818176E2,1.0131893E2,1.0259589E2,6.348886E2,6.054227E2,9.887829E1,9.7445404E1,8.105696E1,7.5631325E1,7.091817E1,7.293401E1,5.9623337E1,1.278013E2,1.4324469E2,6.2259964E1,5.374406E1,1.11250496E2,1.2913643E2,2.41561E2,4.5525623E2,4.3572998E2,5.374406E1,4.986946E1,2.1095026E2,2.1095026E2,1.1427969E2,1.0666616E2,4.8866856E1,4.8129105E1,2.4258481E2,1.0340625E2,4.385313E2,5.588987E2],"tree_param":{"num_deleted":"0","num_feature":"4","num_nodes":"93","size_leaf_vector":"1"}},{"base_weights":[1.249188E-4,3.087438E-1,-2.4262659E-1,3.3857086E-1,1.9672337E-1,-1.1321826E-1,-3.490567E-1,3.1632167E-1,3.8071516E-1,2.5476235E-1,1.4113681E-1,6.6198306E-3,-1.6097207E-1,-2.7584758E-1,-3.8910934E-1,3.0337295E-1,3.4069338E-1,4.772836E-1,3.2626694E-1,1.7479974E-1,3.1712607E-1,1.6124971E-1,4.624203E-3,3.7914027E-2,-9.984826E-3,-1.0754876E-1,-1.898492E-1,-3.665621E-2,-2.3490201E-1,-4.2268878E-1,-3.795034E-1,3.2476714E-1,2.9198682E-1,3.7221104E-1,3.233064E-2,3.7133876E-2,5.2381884E-2,3.8491434E-1,2.9445115E-1,1.4922502E-2,1.9661818E-2,3.4749966E-2,2.8067244E-2,1.4363414E-1,1.7703079E-2,-4.8543736E-3,7.531892E-2,-5.6218587E-2,3.1864066E-2,-1.9847023E-1,-6.7185916E-2,-1.7967552E-1,-2.7552223E-1,-2.598592E-1,-1.866202E-1,-3.643702E-1,-4.4189077E-2,-3.3707327E-1,-3.939377E-1,3.906868E-2,2.5349652E-2,2.410711E-2,3.0775288E-2,4.2407162E-2,3.1554107E-2,4.2407162E-2,3.398831E-2,3.1689316E-2,2.6902735E-2,1.6782966E-2,1.1572853E-2,6.2826383E-3,8.643105E-3,-1.048251E-2,-3.3068794E-3,7.1072825E-3,-5.926812E-3,-2.2568544E-2,-1.8344883E-2,-2.2902493E-3,-9.083266E-3,-1.5689243E-2,-2.0316873E-2,-2.2568544E-2,-3.2407545E-2,-2.1446703E-2,-3.0439366E-2,-1.4019941E-2,-2.3502234E-2,-3.2066725E-2,-4.0135607E-2,-3.6246408E-2,-2.7503101E-2,-3.562543E-2,-4.229783E-2],"categories":[0,1,2,3,4,5,7,8,9,12,0,1,2,3,4,5,7,8,9,11,12,0,1,5,7,9,12,2,3,4,0,5,7,12,0,1,2,3,4,5,7,8,9,10,11,12,13,3,4,0,1,2,3,4,5,7,8,9,10,11,12,13,0,1,2,3,4,5,6,7,8,9,11,12,13,0,5,7,5,7,12,0,1,2,3,4,5,6,7,8,9,11,12,13,3,3,1],"categories_nodes":[0,1,2,5,6,8,12,15,16,29,30,37,51,52,53],"categories_segments":[0,10,21,27,30,34,47,49,62,75,78,81,94,95,96],"categories_sizes":[10,11,6,3,4,13,2,13,13,3,3,13,1,1,1],"default_left":[1,1,1,0,0,1,1,0,1,0,0,0,1,0,0,1,1,0,0,0,0,0,0,0,0,0,0,0,0,1,1,0,0,0,0,0,0,1,0,0,0,0,0,0,0,0,0,0,0,0,0,1,1,1,0,0,0,0,0,0,0,0,0,0,0,0,0,0,0,0,0,0,0,0,0,0,0,0,0,0,0,0,0,0,0,0,0,0,0,0,0,0,0,0,0],"id":9,"left_children":[1,3,5,7,9,11,13,15,17,19,21,23,25,27,29,31,33,35,37,39,41,43,-1,45,47,49,51,-1,53,55,57,59,61,63,-1,-1,-1,65,67,-1,-1,-1,-1,69,-1,-1,71,73,75,77,79,81,83,85,87,89,-1,91,93,-1,-1,-1,-1,-1,-1,-1,-1,-1,-1,-1,-1,-1,-1,-1,-1,-1,-1,-1,-1,-1,-1,-1,-1,-1,-1,-1,-1,-1,-1,-1,-1,-1,-1,-1,-1],"loss_changes":[6.2427515E2,1.2191376E1,6.419928E1,2.5949707E0,2.460535E0,1.2054998E1,7.39563E0,4.966278E-1,5.0794525E0,1.8261585E0,7.5122166E-1,3.1274834E-1,2.303196E0,3.2876663E0,3.7226868E-1,2.098465E-1,2.3667145E-1,1.5646744E0,1.0805588E0,6.4157486E-2,1.358242E-1,6.5639496E-2,0E0,6.782569E-1,7.6322424E-1,1.9345837E0,8.0153275E-1,0E0,7.089653E-1,2.4052429E-1,6.5971375E-1,1.9000778E0,5.890198E-1,5.275116E-1,0E0,0E0,0E0,2.4692917E-1,1.5384674E-1,0E0,0E0,0E0,0E0,8.867216E-2,0E0,0E0,1.4836967E-2,2.0732981E-1,7.445878E-1,2.5103092E-2,3.84439E-1,4.3680573E-1,1.731062E-1,7.672844E-1,4.563179E-1,2.4075508E-2,0E0,4.2863083E-1,8.993988E-1,0E0,0E0,0E0,0E0,0E0,0E0,0E0,0E0,0E0,0E0,0E0,0E0,0E0,0E0,0E0,0E0,0E0,0E0,0E0,0E0,0E0,0E0,0E0,0E0,0E0,0E0,0E0,0E0,0E0,0E0,0E0,0E0,0E0,0E0,0E0,0E0],"parents":[2147483647,0,0,1,1,2,2,3,3,4,4,5,5,6,6,7,7,8,8,9,9,10,10,11,11,12,12,13,13,14,14,15,15,16,16,17,17,18,18,19,19,20,20,21,21,23,23,24,24,25,25,26,26,28,28,29,29,30,30,31,31,32,32,33,33,37,37,38,38,43,43,46,46,47,47,48,48,49,49,50,50,51,51,52,52,53,53,54,54,55,55,57,57,58,58],"right_children":[2,4,6,8,10,12,14,16,18,20,22,24,26,28,30,32,34,36,38,40,42,44,-1,46,48,50,52,-1,54,56,58,60,62,64,-1,-1,-1,66,68,-1,-1,-1,-1,70,-1,-1,72,74,76,78,80,82,84,86,88,90,-1,92,94,-1,-1,-1,-1,-1,-1,-1,-1,-1,-1,-1,-1,-1,-1,-1,-1,-1,-1,-1,-1,-1,-1,-1,-1,-1,-1,-1,-1,-1,-1,-1,-1,-1,-1,-1,-1],"split_conditions":[1E-45,1E-45,1E-45,6E0,4E0,1E-45,1E-45,4E0,1E-45,2E0,8E0,3E0,1E-45,3E0,2E0,1E-45,1E-45,7E0,7E0,1E0,3E0,6E0,4.624203E-3,1E0,6E0,3E0,8E0,-3.665621E-2,7E0,1E-45,1E-45,2E0,1E0,5E0,3.233064E-2,3.7133876E-2,5.2381884E-2,1E-45,8E0,1.4922502E-2,1.9661818E-2,3.4749966E-2,2.8067244E-2,5E0,1.7703079E-2,-4.8543736E-3,2E0,4E0,8E0,1E0,5E0,1E-45,1E-45,1E-45,8E0,1E0,-4.4189077E-2,7E0,5E0,3.906868E-2,2.5349652E-2,2.410711E-2,3.0775288E-2,4.2407162E-2,3.1554107E-2,4.2407162E-2,3.398831E-2,3.1689316E-2,2.6902735E-2,1.6782966E-2,1.1572853E-2,6.2826383E-3,8.643105E-3,-1.048251E-2,-3.3068794E-3,7.1072825E-3,-5.926812E-3,-2.2568544E-2,-1.8344883E-2,-2.2902493E-3,-9.083266E-3,-1.5689243E-2,-2.0316873E-2,-2.2568544E-2,-3.2407545E-2,-2.1446703E-2,-3.0439366E-2,-1.4019941E-2,-2.3502234E-2,-3.2066725E-2,-4.0135607E-2,-3.6246408E-2,-2.7503101E-2,-3.562543E-2,-4.229783E-2],"split_indices":[3,3,3,0,0,3,3,0,3,0,0,0,3,0,0,3,3,0,0,0,0,0,0,0,0,0,0,0,0,3,3,0,0,0,0,0,0,3,0,0,0,0,0,0,0,0,0,0,0,0,0,3,3,3,0,0,0,0,0,0,0,0,0,0,0,0,0,0,0,0,0,0,0,0,0,0,0,0,0,0,0,0,0,0,0,0,0,0,0,0,0,0,0,0,0],"split_type":[1,1,1,0,0,1,1,0,1,0,0,0,1,0,0,1,1,0,0,0,0,0,0,0,0,0,0,0,0,1,1,0,0,0,0,0,0,1,0,0,0,0,0,0,0,0,0,0,0,0,0,1,1,1,0,0,0,0,0,0,0,0,0,0,0,0,0,0,0,0,0,0,0,0,0,0,0,0,0,0,0,0,0,0,0,0,0,0,0,0,0,0,0,0,0],"sum_hessian":[8.3308125E3,3.6676821E3,4.6631304E3,2.8948613E3,7.728207E2,2.1053274E3,2.557803E3,1.9001974E3,9.9466406E2,3.7631744E2,3.9650323E2,6.0013965E2,1.5051879E3,9.0730237E2,1.6505007E3,1.249686E3,6.5051135E2,3.5582068E2,6.388434E2,1.6655894E2,2.097585E2,3.2658456E2,6.991866E1,2.0760004E2,3.925396E2,5.297896E2,9.7539825E2,2.7969293E2,6.2760944E2,3.5756345E2,1.2929373E3,4.2451355E2,8.251725E2,2.2402002E2,4.2649133E2,1.1133307E2,2.444876E2,2.2077725E2,4.180661E2,8.028792E1,8.627103E1,1.0976679E2,9.999171E1,1.5909601E2,1.6748854E2,6.260255E1,1.4499748E2,1.8633609E2,2.062035E2,1.616774E2,3.681122E2,8.7463275E2,1.00765465E2,4.10854E2,2.1675542E2,9.351709E1,2.6404636E2,3.343766E2,9.585607E2,2.1820738E2,2.0630617E2,1.9895297E2,6.262195E2,1.1358837E2,1.1043164E2,1.1358837E2,1.0718888E2,2.1596527E2,2.0210083E2,8.2527E1,7.6569016E1,7.139137E1,7.360611E1,5.897694E1,1.2735915E2,1.4432791E2,6.18756E1,5.251271E1,1.09164696E2,1.288265E2,2.392857E2,4.4792487E2,4.2670792E2,5.251271E1,4.8252754E1,2.0634775E2,2.0450626E2,1.1263125E2,1.0412417E2,4.729854E1,4.6218548E1,2.3383675E2,1.0053983E2,4.2297333E2,5.355874E2],"tree_param":{"num_deleted":"0","num_feature":"4","num_nodes":"95","size_leaf_vector":"1"}},{"base_weights":[-1.01703255E-4,2.4625766E-1,-2.7332595E-1,2.8435087E-1,6.273488E-3,-1.9828406E-1,-3.8486362E-1,3.1087124E-1,1.83323E-1,3.590833E-2,-9.524815E-3,-1.3048382E-1,-2.4929054E-1,-4.1952416E-1,-3.7498924E-1,2.7953342E-1,3.3435366E-1,2.360298E-1,1.3227193E-1,-4.639791E-3,7.10851E-2,-5.3771004E-2,3.017656E-2,-1.0338962E-1,-1.5906464E-1,-2.8397974E-1,-2.0842138E-1,-3.595706E-1,-4.394294E-2,-3.316379E-1,-3.8982266E-1,2.8907645E-1,2.5892508E-1,3.8333946E-1,3.0771837E-1,1.6329962E-1,2.9195493E-1,1.5081596E-1,4.37729E-3,5.9370934E-3,8.148035E-3,-1.00766355E-2,-3.154546E-2,1.0734222E-2,-1.2102438E-2,-1.9257186E-1,-6.430685E-2,-1.5153305E-1,-2.196203E-2,-2.1115738E-1,-3.2409832E-1,-1.9204722E-1,-2.5902218E-1,-3.1505715E-2,-3.975422E-2,-3.5753536E-1,-2.6891554E-2,-3.5117727E-2,-4.1980425E-1,3.0588154E-2,2.8297877E-2,2.7308447E-2,2.1257367E-2,3.1472355E-2,4.719452E-2,3.3017274E-2,2.7160306E-2,1.3977535E-2,1.8327326E-2,3.1892326E-2,2.5936741E-2,1.3461339E-2,1.6527956E-2,-8.033933E-4,-5.4567675E-3,2.5907531E-3,-5.671007E-3,-2.196203E-2,-1.7770495E-2,-2.1824783E-3,-8.714586E-3,-1.6407644E-2,-1.3005813E-2,-1.7706914E-2,-3.601703E-2,-3.6172546E-2,-2.7077857E-2,-2.162831E-2,-1.4608502E-2,-2.2886278E-2,-3.1851232E-2,-2.8281892E-2,-4.0490605E-2,-4.0483084E-2,-4.472253E-2],"categories":[0,1,2,3,4,5,7,9,12,0,1,2,3,4,5,7,8,9,12,0,5,7,12,0,1,2,3,4,5,7,8,9,11,12,1,3,9,4,0,5,7,5,7,12,0,1,2,3,4,5,7,8,9,11,12,13,0,1,2,3,4,5,7,8,9,10,11,12,13,1,9,3,7],"categories_nodes":[0,1,2,3,5,11,13,14,15,16,25,52,58],"categories_segments":[0,9,19,23,34,37,38,41,44,56,69,71,72],"categories_sizes":[9,10,4,11,3,1,3,3,12,13,2,1,1],"default_left":[1,1,1,1,0,1,0,0,0,0,0,1,0,1,1,1,1,0,0,0,0,0,0,0,0,1,0,0,0,0,0,0,0,0,0,0,0,0,0,0,0,0,0,0,0,0,0,0,0,0,0,0,1,0,0,0,0,0,1,0,0,0,0,0,0,0,0,0,0,0,0,0,0,0,0,0,0,0,0,0,0,0,0,0,0,0,0,0,0,0,0,0,0,0,0],"id":10,"left_children":[1,3,5,7,9,11,13,15,17,19,21,23,25,27,29,31,33,35,37,-1,39,41,43,45,47,49,51,53,-1,55,57,59,61,63,65,67,69,71,-1,-1,-1,-1,73,-1,75,77,79,81,-1,83,85,87,89,-1,-1,91,-1,-1,93,-1,-1,-1,-1,-1,-1,-1,-1,-1,-1,-1,-1,-1,-1,-1,-1,-1,-1,-1,-1,-1,-1,-1,-1,-1,-1,-1,-1,-1,-1,-1,-1,-1,-1,-1,-1],"loss_changes":[5.6114886E2,4.007419E1,3.3008484E1,1.0079498E1,2.8197756E-1,8.1464E0,3.8641357E-1,2.1106567E0,2.091959E0,6.0952616E-1,6.922749E-1,7.7145576E-1,1.8527298E0,2.5231552E-1,6.7189026E-1,1.7867279E-1,2.1094208E0,1.5262852E0,6.549473E-1,0E0,1.3073325E-2,1.914118E-1,6.794635E-1,1.8181086E0,1.9170189E-1,2.0545807E0,4.6635437E-1,2.8910637E-2,0E0,4.306717E-1,9.2152405E-1,2.8381348E-3,2.1602058E-1,3.482338E0,8.111954E-1,5.4484844E-2,1.084156E-1,5.5757046E-2,0E0,0E0,0E0,0E0,6.8813235E-2,0E0,2.3068626E-1,2.5120258E-2,3.5384345E-1,9.770775E-2,0E0,1.2619944E0,8.3834076E-1,4.969406E-1,1.9518948E-1,0E0,0E0,6.8719864E-1,0E0,0E0,3.0151367E-2,0E0,0E0,0E0,0E0,0E0,0E0,0E0,0E0,0E0,0E0,0E0,0E0,0E0,0E0,0E0,0E0,0E0,0E0,0E0,0E0,0E0,0E0,0E0,0E0,0E0,0E0,0E0,0E0,0E0,0E0,0E0,0E0,0E0,0E0,0E0,0E0],"parents":[2147483647,0,0,1,1,2,2,3,3,4,4,5,5,6,6,7,7,8,8,9,9,10,10,11,11,12,12,13,13,14,14,15,15,16,16,17,17,18,18,20,20,21,21,22,22,23,23,24,24,25,25,26,26,27,27,29,29,30,30,31,31,32,32,33,33,34,34,35,35,36,36,37,37,42,42,44,44,45,45,46,46,47,47,49,49,50,50,51,51,52,52,55,55,58,58],"right_children":[2,4,6,8,10,12,14,16,18,20,22,24,26,28,30,32,34,36,38,-1,40,42,44,46,48,50,52,54,-1,56,58,60,62,64,66,68,70,72,-1,-1,-1,-1,74,-1,76,78,80,82,-1,84,86,88,90,-1,-1,92,-1,-1,94,-1,-1,-1,-1,-1,-1,-1,-1,-1,-1,-1,-1,-1,-1,-1,-1,-1,-1,-1,-1,-1,-1,-1,-1,-1,-1,-1,-1,-1,-1,-1,-1,-1,-1,-1,-1],"split_conditions":[1E-45,1E-45,1E-45,1E-45,3E0,1E-45,2E0,4E0,4E0,1E0,6E0,1E-45,5E0,1E-45,1E-45,1E-45,1E-45,2E0,8E0,-4.639791E-3,2E0,4E0,7E0,3E0,8E0,1E-45,8E0,1E0,-4.394294E-2,7E0,5E0,1E0,3E0,7E0,7E0,1E0,3E0,6E0,4.37729E-3,5.9370934E-3,8.148035E-3,-1.00766355E-2,5E0,1.0734222E-2,8E0,1E0,5E0,5E0,-2.196203E-2,4E0,3E0,7E0,1E-45,-3.1505715E-2,-3.975422E-2,4E0,-2.6891554E-2,-3.5117727E-2,1E-45,3.0588154E-2,2.8297877E-2,2.7308447E-2,2.1257367E-2,3.1472355E-2,4.719452E-2,3.3017274E-2,2.7160306E-2,1.3977535E-2,1.8327326E-2,3.1892326E-2,2.5936741E-2,1.3461339E-2,1.6527956E-2,-8.033933E-4,-5.4567675E-3,2.5907531E-3,-5.671007E-3,-2.196203E-2,-1.7770495E-2,-2.1824783E-3,-8.714586E-3,-1.6407644E-2,-1.3005813E-2,-1.7706914E-2,-3.601703E-2,-3.6172546E-2,-2.7077857E-2,-2.162831E-2,-1.4608502E-2,-2.2886278E-2,-3.1851232E-2,-2.8281892E-2,-4.0490605E-2,-4.0483084E-2,-4.472253E-2],"split_indices":[3,3,3,3,0,3,0,0,0,0,0,3,0,3,3,3,3,0,0,0,0,0,0,0,0,3,0,0,0,0,0,0,0,0,0,0,0,0,0,0,0,0,0,0,0,0,0,0,0,0,0,0,3,0,0,0,0,0,3,0,0,0,0,0,0,0,0,0,0,0,0,0,0,0,0,0,0,0,0,0,0,0,0,0,0,0,0,0,0,0,0,0,0,0,0],"split_type":[1,1,1,1,0,1,0,0,0,0,0,1,0,1,1,1,1,0,0,0,0,0,0,0,0,1,0,0,0,0,0,0,0,0,0,0,0,0,0,0,0,0,0,0,0,0,0,0,0,0,0,0,1,0,0,0,0,0,1,0,0,0,0,0,0,0,0,0,0,0,0,0,0,0,0,0,0,0,0,0,0,0,0,0,0,0,0,0,0,0,0,0,0,0,0],"sum_hessian":[8.334615E3,4.3828286E3,3.9517866E3,3.782275E3,6.005537E2,2.3640474E3,1.5877394E3,2.9942031E3,7.880719E2,2.0838574E2,3.9216797E2,1.01646796E3,1.3475793E3,3.428386E2,1.2449008E3,1.2881024E3,1.7061007E3,3.859652E2,4.021067E2,6.229937E1,1.4608636E2,1.8530064E2,2.0686731E2,5.2417505E2,4.922929E2,7.256818E2,6.2189746E2,9.0206154E1,2.5263245E2,3.2332516E2,9.2157556E2,8.715085E2,4.1659396E2,5.9620624E2,1.1098944E3,1.6947906E2,2.1648613E2,3.31864E2,7.024271E1,7.1841324E1,7.424505E1,5.8361954E1,1.2693869E2,7.267867E1,1.3418864E2,1.585212E2,3.6565387E2,4.4095206E2,5.1340855E1,2.5999963E2,4.6568216E2,4.7347787E2,1.484196E2,4.5805885E1,4.440027E1,2.2551279E2,9.781236E1,4.0816998E2,5.1340564E2,2.189425E2,6.52566E2,3.15365E2,1.01228966E2,3.385705E2,2.576357E2,6.7936414E2,4.305303E2,8.149501E1,8.798406E1,1.13648186E2,1.02837944E2,1.61384E2,1.7048E2,6.3469345E1,6.3469345E1,7.267867E1,6.150997E1,5.1340855E1,1.0718034E2,1.285318E2,2.3712206E2,2.741703E2,1.6678177E2,2.1337596E2,4.6623688E1,2.6962607E2,1.9605609E2,3.0758337E2,1.6589452E2,1.01705536E2,4.671407E1,9.020512E1,1.3530768E2,3.4227042E2,1.7113521E2],"tree_param":{"num_deleted":"0","num_feature":"4","num_nodes":"95","size_leaf_vector":"1"}},{"base_weights":[-3.147745E-4,2.2819422E-1,-2.6719314E-1,2.6250747E-1,5.9473612E-3,-1.9236228E-1,-3.8050598E-1,2.8620768E-1,1.7105779E-1,3.4015793E-2,-9.082851E-3,-1.2571874E-1,-2.4309446E-1,-4.1625032E-1,-3.7036666E-1,2.6822427E-1,3.1990877E-1,2.1908957E-1,1.24055795E-1,-4.433745E-3,6.7117654E-2,-5.1425766E-2,2.8597353E-2,-9.934993E-2,-1.536899E-1,-2.7789754E-1,-2.0239846E-1,-3.5466737E-1,-4.3687236E-2,-3.2612997E-1,-3.8559395E-1,2.581996E-1,2.8692505E-1,3.9368856E-1,2.7711886E-1,1.5273227E-1,2.694647E-1,1.4118187E-1,4.144567E-3,5.6124832E-3,7.6851235E-3,-9.682593E-3,-3.010027E-2,1.0098074E-2,-1.1530851E-2,-1.867388E-1,-6.153308E-2,-1.4628841E-1,-2.1359034E-2,-2.0513368E-1,-3.184426E-1,-1.8616769E-1,-2.528803E-1,-3.0937491E-2,-3.936174E-2,-3.5252064E-1,-2.6277462E-2,-3.4599334E-2,-4.165259E-1,2.7602276E-2,2.4868133E-2,3.136467E-2,2.721545E-2,3.1426933E-2,4.2746242E-2,3.2446906E-2,2.5106603E-2,1.3104807E-2,1.7106308E-2,2.935415E-2,2.4019407E-2,1.2622478E-2,1.5449251E-2,-7.647353E-4,-5.2186875E-3,2.4573996E-3,-5.4248706E-3,-2.1359034E-2,-1.720414E-2,-2.0795497E-3,-8.357732E-3,-1.5859604E-2,-1.2528898E-2,-1.7138822E-2,-3.5527628E-2,-3.5677698E-2,-2.6461298E-2,-2.101749E-2,-1.4095853E-2,-2.2272667E-2,-3.128738E-2,-2.7675604E-2,-4.0114667E-2,-4.010516E-2,-4.449814E-2],"categories":[0,1,2,3,4,5,7,9,12,0,1,2,3,4,5,7,8,9,12,0,5,7,12,0,1,2,3,4,5,7,8,9,11,12,1,3,9,4,0,5,7,5,7,12,0,1,2,3,4,5,7,8,9,10,11,12,13,1,9,0,1,2,3,4,5,7,8,9,10,11,12,13,0,1,2,3,4,5,6,7,8,9,11,12,13,3,7],"categories_nodes":[0,1,2,3,5,11,13,14,16,25,31,32,52,58],"categories_segments":[0,9,19,23,34,37,38,41,44,57,59,72,85,86],"categories_sizes":[9,10,4,11,3,1,3,3,13,2,13,13,1,1],"default_left":[1,1,1,1,0,1,0,0,0,0,0,1,0,1,1,0,1,0,0,0,0,0,0,0,0,1,0,0,0,0,0,1,1,0,0,0,0,0,0,0,0,0,0,0,0,0,0,0,0,0,0,0,1,0,0,0,0,0,1,0,0,0,0,0,0,0,0,0,0,0,0,0,0,0,0,0,0,0,0,0,0,0,0,0,0,0,0,0,0,0,0,0,0,0,0],"id":11,"left_children":[1,3,5,7,9,11,13,15,17,19,21,23,25,27,29,31,33,35,37,-1,39,41,43,45,47,49,51,53,-1,55,57,59,61,63,65,67,69,71,-1,-1,-1,-1,73,-1,75,77,79,81,-1,83,85,87,89,-1,-1,91,-1,-1,93,-1,-1,-1,-1,-1,-1,-1,-1,-1,-1,-1,-1,-1,-1,-1,-1,-1,-1,-1,-1,-1,-1,-1,-1,-1,-1,-1,-1,-1,-1,-1,-1,-1,-1,-1,-1],"loss_changes":[5.0861926E2,3.4262756E1,3.2547607E1,8.38678E0,2.542538E-1,7.8099594E0,4.0000916E-1,1.7866669E0,1.7869434E0,5.479837E-1,6.281974E-1,7.2553825E-1,1.8071213E0,2.6392746E-1,6.82724E-1,3.0473328E-1,3.2683258E0,1.2829933E0,5.720091E-1,0E0,1.1535704E-2,1.7650792E-1,6.067545E-1,1.7064438E0,1.8402863E-1,2.018917E0,4.5285034E-1,3.3566475E-2,0E0,4.3210602E-1,9.429321E-1,1.5623474E-1,1.894226E-1,9.126358E-1,7.579918E-1,4.6448708E-2,8.726311E-2,4.7770023E-2,0E0,0E0,0E0,0E0,6.285025E-2,0E0,2.0959178E-1,2.502346E-2,3.254285E-1,9.2642784E-2,0E0,1.2341671E0,8.3802795E-1,4.7559166E-1,1.9380665E-1,0E0,0E0,6.94437E-1,0E0,0E0,3.8772583E-2,0E0,0E0,0E0,0E0,0E0,0E0,0E0,0E0,0E0,0E0,0E0,0E0,0E0,0E0,0E0,0E0,0E0,0E0,0E0,0E0,0E0,0E0,0E0,0E0,0E0,0E0,0E0,0E0,0E0,0E0,0E0,0E0,0E0,0E0,0E0,0E0],"parents":[2147483647,0,0,1,1,2,2,3,3,4,4,5,5,6,6,7,7,8,8,9,9,10,10,11,11,12,12,13,13,14,14,15,15,16,16,17,17,18,18,20,20,21,21,22,22,23,23,24,24,25,25,26,26,27,27,29,29,30,30,31,31,32,32,33,33,34,34,35,35,36,36,37,37,42,42,44,44,45,45,46,46,47,47,49,49,50,50,51,51,52,52,55,55,58,58],"right_children":[2,4,6,8,10,12,14,16,18,20,22,24,26,28,30,32,34,36,38,-1,40,42,44,46,48,50,52,54,-1,56,58,60,62,64,66,68,70,72,-1,-1,-1,-1,74,-1,76,78,80,82,-1,84,86,88,90,-1,-1,92,-1,-1,94,-1,-1,-1,-1,-1,-1,-1,-1,-1,-1,-1,-1,-1,-1,-1,-1,-1,-1,-1,-1,-1,-1,-1,-1,-1,-1,-1,-1,-1,-1,-1,-1,-1,-1,-1,-1],"split_conditions":[1E-45,1E-45,1E-45,1E-45,3E0,1E-45,2E0,6E0,4E0,1E0,6E0,1E-45,5E0,1E-45,1E-45,4E0,1E-45,2E0,8E0,-4.433745E-3,2E0,4E0,7E0,3E0,8E0,1E-45,8E0,1E0,-4.3687236E-2,7E0,5E0,1E-45,1E-45,7E0,7E0,1E0,3E0,6E0,4.144567E-3,5.6124832E-3,7.6851235E-3,-9.682593E-3,5E0,1.0098074E-2,8E0,1E0,5E0,5E0,-2.1359034E-2,4E0,3E0,7E0,1E-45,-3.0937491E-2,-3.936174E-2,4E0,-2.6277462E-2,-3.4599334E-2,1E-45,2.7602276E-2,2.4868133E-2,3.136467E-2,2.721545E-2,3.1426933E-2,4.2746242E-2,3.2446906E-2,2.5106603E-2,1.3104807E-2,1.7106308E-2,2.935415E-2,2.4019407E-2,1.2622478E-2,1.5449251E-2,-7.647353E-4,-5.2186875E-3,2.4573996E-3,-5.4248706E-3,-2.1359034E-2,-1.720414E-2,-2.0795497E-3,-8.357732E-3,-1.5859604E-2,-1.2528898E-2,-1.7138822E-2,-3.5527628E-2,-3.5677698E-2,-2.6461298E-2,-2.101749E-2,-1.4095853E-2,-2.2272667E-2,-3.128738E-2,-2.7675604E-2,-4.0114667E-2,-4.010516E-2,-4.449814E-2],"split_indices":[3,3,3,3,0,3,0,0,0,0,0,3,0,3,3,0,3,0,0,0,0,0,0,0,0,3,0,0,0,0,0,3,3,0,0,0,0,0,0,0,0,0,0,0,0,0,0,0,0,0,0,0,3,0,0,0,0,0,3,0,0,0,0,0,0,0,0,0,0,0,0,0,0,0,0,0,0,0,0,0,0,0,0,0,0,0,0,0,0,0,0,0,0,0,0],"split_type":[1,1,1,1,0,1,0,0,0,0,0,1,0,1,1,0,1,0,0,0,0,0,0,0,0,1,0,0,0,0,0,1,1,0,0,0,0,0,0,0,0,0,0,0,0,0,0,0,0,0,0,0,1,0,0,0,0,0,1,0,0,0,0,0,0,0,0,0,0,0,0,0,0,0,0,0,0,0,0,0,0,0,0,0,0,0,0,0,0,0,0,0,0,0,0],"sum_hessian":[8.338194E3,4.4920854E3,3.846109E3,3.891141E3,6.009441E2,2.3180112E3,1.5280977E3,3.0885732E3,8.025679E2,2.091326E2,3.918115E2,1.00339514E3,1.314616E3,3.2882648E2,1.1992712E3,2.0197598E3,1.0688136E3,3.951248E2,4.0744308E2,6.2010994E1,1.4712161E2,1.8431912E2,2.0749237E2,5.188343E2,4.8456088E2,7.054711E2,6.0914484E2,8.705503E1,2.4177142E2,3.1284518E2,8.86426E2,1.3245386E3,6.952212E2,3.8932547E2,6.7948816E2,1.7225354E2,2.2287125E2,3.368922E2,7.055086E1,7.226912E1,7.4852486E1,5.777682E1,1.2654231E2,7.346304E1,1.3402933E2,1.5551813E2,3.6331616E2,4.3433527E2,5.02256E1,2.5460532E2,4.508658E2,4.6449094E2,1.4465393E2,4.438523E1,4.26698E1,2.176281E2,9.5217094E1,3.9408478E2,4.9234125E2,4.5135944E2,8.731791E2,2.4028467E2,4.5493652E2,1.1923928E2,2.7008618E2,2.3710428E2,4.4238388E2,8.2642105E1,8.9611435E1,1.173311E2,1.0554015E2,1.6357117E2,1.7332104E2,6.341837E1,6.312394E1,7.2867195E1,6.1162132E1,5.02256E1,1.0529252E2,1.2825159E2,2.3506459E2,2.6970856E2,1.6462671E2,2.09631E2,4.4974327E1,2.6004727E2,1.9081854E2,3.0100226E2,1.6348868E2,9.940431E1,4.524961E1,8.768968E1,1.2993842E2,3.28691E2,1.6365022E2],"tree_param":{"num_deleted":"0","num_feature":"4","num_nodes":"95","size_leaf_vector":"1"}},{"base_weights":[-4.981572E-4,2.1185434E-1,-2.610368E-1,2.4288872E-1,5.638617E-3,-1.8650617E-1,-3.7603167E-1,2.6417106E-1,1.5981261E-1,3.2229315E-2,-8.660725E-3,-1.2106962E-1,-2.3690423E-1,-4.128658E-1,-3.6562952E-1,2.4802215E-1,2.9427955E-1,2.0371407E-1,1.1644732E-1,-4.235995E-3,6.33968E-2,-4.9171306E-2,2.7105447E-2,-9.542953E-2,-1.4841615E-1,-2.7177852E-1,-1.9643024E-1,-3.4966335E-1,-4.3421734E-2,-3.2053602E-1,-3.8124704E-1,2.3898889E-1,2.6482582E-1,3.5946998E-1,2.5603113E-1,1.4300025E-1,2.49272E-1,1.3229242E-1,3.9251302E-3,5.3073503E-3,7.2518624E-3,-9.300319E-3,-2.871708E-2,5.9864845E-2,-5.1881415E-3,-1.8097714E-1,-5.886234E-2,-1.4115004E-1,-2.0760264E-2,-1.9916208E-1,-3.1270587E-1,-1.8036026E-1,-2.4673352E-1,-3.036262E-2,-3.8958203E-2,-3.474009E-1,-2.5661558E-2,-3.4070566E-2,-4.1313544E-1,2.4698952E-2,2.2165375E-2,2.887291E-2,2.5155906E-2,2.8938517E-2,3.8893204E-2,2.9836258E-2,2.325696E-2,1.2297311E-2,1.5986208E-2,2.7087275E-2,2.228682E-2,1.1845964E-2,1.4456748E-2,-7.279051E-4,-4.9898024E-3,9.505672E-3,2.3312175E-3,-2.0760264E-2,-1.6646352E-2,-1.981277E-3,-8.012581E-3,-1.4707341E-2,-9.963617E-3,-1.6579386E-2,-3.5028078E-2,-3.5171904E-2,-2.5842601E-2,-2.041121E-2,-1.3594128E-2,-2.1662151E-2,-3.0716524E-2,-2.7065862E-2,-3.9727136E-2,-3.9715473E-2,-4.426482E-2],"categories":[0,1,2,3,4,5,7,9,12,0,1,2,3,4,5,7,8,9,12,0,5,7,12,0,1,2,3,4,5,7,8,9,11,12,1,3,9,4,0,5,7,5,7,12,0,1,2,3,4,5,7,8,9,10,11,12,13,1,9,0,1,2,3,4,5,7,8,9,11,12,13,0,1,2,3,4,5,6,7,8,9,11,12,13,3,7],"categories_nodes":[0,1,2,3,5,11,13,14,16,25,31,32,52,58],"categories_segments":[0,9,19,23,34,37,38,41,44,57,59,71,84,85],"categories_sizes":[9,10,4,11,3,1,3,3,13,2,12,13,1,1],"default_left":[1,1,1,1,0,1,0,0,0,0,0,1,0,1,1,0,1,0,0,0,0,0,0,0,0,1,0,0,0,0,0,1,1,0,0,0,0,0,0,0,0,0,0,0,0,0,0,0,0,0,0,0,1,0,0,0,0,0,1,0,0,0,0,0,0,0,0,0,0,0,0,0,0,0,0,0,0,0,0,0,0,0,0,0,0,0,0,0,0,0,0,0,0,0,0],"id":12,"left_children":[1,3,5,7,9,11,13,15,17,19,21,23,25,27,29,31,33,35,37,-1,39,41,43,45,47,49,51,53,-1,55,57,59,61,63,65,67,69,71,-1,-1,-1,-1,73,75,-1,77,79,81,-1,83,85,87,89,-1,-1,91,-1,-1,93,-1,-1,-1,-1,-1,-1,-1,-1,-1,-1,-1,-1,-1,-1,-1,-1,-1,-1,-1,-1,-1,-1,-1,-1,-1,-1,-1,-1,-1,-1,-1,-1,-1,-1,-1,-1],"loss_changes":[4.6160037E2,2.9416595E1,3.2040314E1,7.021881E0,2.2929677E-1,7.4747086E0,4.131775E-1,1.4727173E0,1.5323162E0,4.9284357E-1,5.699885E-1,6.8136597E-1,1.7593384E0,2.7526093E-1,6.9252014E-1,2.5175476E-1,2.6619186E0,1.0840931E0,5.0060654E-1,0E0,1.0192037E-2,1.6263935E-1,5.441299E-1,1.5996199E0,1.7635155E-1,1.9801941E0,4.3891335E-1,3.802395E-2,0E0,4.3266487E-1,9.6325684E-1,1.3388824E-1,1.5456009E-1,7.2562027E-1,6.253853E-1,3.973818E-2,7.077026E-2,4.105854E-2,0E0,0E0,0E0,0E0,5.7379693E-2,1.8849301E-1,0E0,2.4820805E-2,2.9906917E-1,9.084892E-2,0E0,1.2049541E0,8.361397E-1,4.543419E-1,1.919899E-1,0E0,0E0,7.0048904E-1,0E0,0E0,4.7424316E-2,0E0,0E0,0E0,0E0,0E0,0E0,0E0,0E0,0E0,0E0,0E0,0E0,0E0,0E0,0E0,0E0,0E0,0E0,0E0,0E0,0E0,0E0,0E0,0E0,0E0,0E0,0E0,0E0,0E0,0E0,0E0,0E0,0E0,0E0,0E0,0E0],"parents":[2147483647,0,0,1,1,2,2,3,3,4,4,5,5,6,6,7,7,8,8,9,9,10,10,11,11,12,12,13,13,14,14,15,15,16,16,17,17,18,18,20,20,21,21,22,22,23,23,24,24,25,25,26,26,27,27,29,29,30,30,31,31,32,32,33,33,34,34,35,35,36,36,37,37,42,42,43,43,45,45,46,46,47,47,49,49,50,50,51,51,52,52,55,55,58,58],"right_children":[2,4,6,8,10,12,14,16,18,20,22,24,26,28,30,32,34,36,38,-1,40,42,44,46,48,50,52,54,-1,56,58,60,62,64,66,68,70,72,-1,-1,-1,-1,74,76,-1,78,80,82,-1,84,86,88,90,-1,-1,92,-1,-1,94,-1,-1,-1,-1,-1,-1,-1,-1,-1,-1,-1,-1,-1,-1,-1,-1,-1,-1,-1,-1,-1,-1,-1,-1,-1,-1,-1,-1,-1,-1,-1,-1,-1,-1,-1,-1],"split_conditions":[1E-45,1E-45,1E-45,1E-45,3E0,1E-45,2E0,6E0,4E0,1E0,6E0,1E-45,5E0,1E-45,1E-45,4E0,1E-45,2E0,8E0,-4.235995E-3,2E0,4E0,8E0,3E0,8E0,1E-45,8E0,1E0,-4.3421734E-2,7E0,5E0,1E-45,1E-45,7E0,7E0,1E0,3E0,6E0,3.9251302E-3,5.3073503E-3,7.2518624E-3,-9.300319E-3,5E0,7E0,-5.1881415E-3,1E0,5E0,7E0,-2.0760264E-2,4E0,3E0,7E0,1E-45,-3.036262E-2,-3.8958203E-2,4E0,-2.5661558E-2,-3.4070566E-2,1E-45,2.4698952E-2,2.2165375E-2,2.887291E-2,2.5155906E-2,2.8938517E-2,3.8893204E-2,2.9836258E-2,2.325696E-2,1.2297311E-2,1.5986208E-2,2.7087275E-2,2.228682E-2,1.1845964E-2,1.4456748E-2,-7.279051E-4,-4.9898024E-3,9.505672E-3,2.3312175E-3,-2.0760264E-2,-1.6646352E-2,-1.981277E-3,-8.012581E-3,-1.4707341E-2,-9.963617E-3,-1.6579386E-2,-3.5028078E-2,-3.5171904E-2,-2.5842601E-2,-2.041121E-2,-1.3594128E-2,-2.1662151E-2,-3.0716524E-2,-2.7065862E-2,-3.9727136E-2,-3.9715473E-2,-4.426482E-2],"split_indices":[3,3,3,3,0,3,0,0,0,0,0,3,0,3,3,0,3,0,0,0,0,0,0,0,0,3,0,0,0,0,0,3,3,0,0,0,0,0,0,0,0,0,0,0,0,0,0,0,0,0,0,0,3,0,0,0,0,0,3,0,0,0,0,0,0,0,0,0,0,0,0,0,0,0,0,0,0,0,0,0,0,0,0,0,0,0,0,0,0,0,0,0,0,0,0],"split_type":[1,1,1,1,0,1,0,0,0,0,0,1,0,1,1,0,1,0,0,0,0,0,0,0,0,1,0,0,0,0,0,1,1,0,0,0,0,0,0,0,0,0,0,0,0,0,0,0,0,0,0,0,1,0,0,0,0,0,1,0,0,0,0,0,0,0,0,0,0,0,0,0,0,0,0,0,0,0,0,0,0,0,0,0,0,0,0,0,0,0,0,0,0,0,0],"sum_hessian":[8.341277E3,4.595717E3,3.7455603E3,3.9944023E3,6.013142E2,2.2742148E3,1.4713456E3,3.178068E3,8.163343E2,2.098425E2,3.914717E2,9.909602E2,1.2832546E3,3.1549243E2,1.1558531E3,2.0745854E3,1.1034827E3,4.0382196E2,4.1251233E2,6.173667E1,1.4810582E2,1.8338536E2,2.0808636E2,5.1375415E2,4.7720605E2,6.862417E2,5.970129E2,8.4055954E1,2.3143648E2,3.0287286E2,8.529803E2,1.3591571E3,7.1542834E2,4.049277E2,6.9855493E2,1.7488982E2,2.2893213E2,3.4166846E2,7.084387E1,7.2675865E1,7.5429955E1,5.722009E1,1.2616527E2,1.4725513E2,6.0831226E1,1.5266077E2,3.6109338E2,4.2804184E2,4.916421E1,2.4947334E2,4.3676837E2,4.5594232E2,1.4107057E2,4.303309E1,4.102287E1,2.1012524E2,9.274761E1,3.806829E2,4.7229736E2,9.208931E2,4.38264E2,2.479405E2,4.6748785E2,1.23046104E2,2.818816E2,2.4492374E2,4.5363116E2,8.3732254E1,9.115756E1,1.208263E2,1.08105835E2,1.6564891E2,1.7601956E2,6.3369884E1,6.2795387E1,7.420863E1,7.30465E1,4.916421E1,1.0349655E2,1.2798517E2,2.3310822E2,3.723681E2,5.567373E1,2.060688E2,4.340454E1,2.5093295E2,1.8583543E2,2.9474194E2,1.6120036E2,9.721479E1,4.3855785E1,8.529609E1,1.24829155E2,3.1576965E2,1.5652773E2],"tree_param":{"num_deleted":"0","num_feature":"4","num_nodes":"95","size_leaf_vector":"1"}},{"base_weights":[-6.563931E-4,1.9701691E-1,-2.5486434E-1,2.2518827E-1,5.346194E-3,-1.8072146E-1,-3.7144166E-1,2.4438131E-1,1.4947769E-1,3.0542271E-2,-8.2577355E-3,-1.1653686E-1,-2.3072752E-1,-4.093691E-1,-3.607796E-1,2.2981535E-1,2.7141416E-1,1.8971254E-1,1.0939019E-1,-4.0462636E-3,5.9904397E-2,-4.7005247E-2,2.569543E-2,-9.162791E-2,-1.4324501E-1,-2.6563004E-1,-1.9052331E-1,-3.4456155E-1,-4.3146197E-2,-3.1486118E-1,-3.7678248E-1,2.2164209E-1,2.4498066E-1,3.29372E-1,2.3705822E-1,1.3401917E-1,2.3106286E-1,1.2407456E-1,3.7181322E-3,5.0203237E-3,6.845984E-3,-8.929762E-3,-2.7393734E-2,5.6584135E-2,-4.960582E-3,-1.752925E-1,-5.6292213E-2,-1.3611878E-1,-2.0166392E-2,-1.9324926E-1,-3.0689368E-1,-1.7463085E-1,-2.4058932E-1,-2.9781675E-2,-3.854361E-2,-3.4217945E-1,-2.504462E-2,-3.353179E-2,-4.096314E-1,2.367357E-2,2.135594E-2,2.6646618E-2,2.3301214E-2,2.6714206E-2,3.552674E-2,2.7508697E-2,2.158435E-2,1.1548904E-2,1.4956261E-2,2.5052736E-2,2.0715332E-2,1.112597E-2,1.35416435E-2,-6.9282943E-4,-4.769876E-3,8.953309E-3,2.2117866E-3,-2.0166392E-2,-1.609761E-2,-1.8874555E-3,-7.678994E-3,-9.340709E-3,-1.4189427E-2,-1.6029095E-2,-3.4518674E-2,-3.4655448E-2,-2.5222538E-2,-1.9810183E-2,-1.31036015E-2,-2.1055445E-2,-3.0139241E-2,-2.6453404E-2,-3.9327975E-2,-3.9313953E-2,-4.402233E-2],"categories":[0,1,2,3,4,5,7,9,12,0,1,2,3,4,5,7,8,9,12,0,5,7,12,0,1,2,3,4,5,7,8,9,11,12,1,3,9,4,0,5,7,5,7,12,0,1,2,3,4,5,7,8,9,10,11,12,13,1,9,0,1,2,3,4,5,7,8,9,10,11,12,13,0,1,2,3,4,5,6,7,8,9,11,12,13,3,7],"categories_nodes":[0,1,2,3,5,11,13,14,16,25,31,32,52,58],"categories_segments":[0,9,19,23,34,37,38,41,44,57,59,72,85,86],"categories_sizes":[9,10,4,11,3,1,3,3,13,2,13,13,1,1],"default_left":[1,1,1,1,0,1,0,0,0,0,0,1,0,1,1,0,1,0,0,0,0,0,0,0,0,1,0,0,0,0,0,1,1,0,0,0,0,0,0,0,0,0,0,0,0,0,0,0,0,0,0,0,1,0,0,0,0,0,1,0,0,0,0,0,0,0,0,0,0,0,0,0,0,0,0,0,0,0,0,0,0,0,0,0,0,0,0,0,0,0,0,0,0,0,0],"id":13,"left_children":[1,3,5,7,9,11,13,15,17,19,21,23,25,27,29,31,33,35,37,-1,39,41,43,45,47,49,51,53,-1,55,57,59,61,63,65,67,69,71,-1,-1,-1,-1,73,75,-1,77,79,81,-1,83,85,87,89,-1,-1,91,-1,-1,93,-1,-1,-1,-1,-1,-1,-1,-1,-1,-1,-1,-1,-1,-1,-1,-1,-1,-1,-1,-1,-1,-1,-1,-1,-1,-1,-1,-1,-1,-1,-1,-1,-1,-1,-1,-1],"loss_changes":[4.193844E2,2.5350296E1,3.1488876E1,5.9116364E0,2.0682508E-1,7.1419296E0,4.258728E-1,1.2228394E0,1.3186245E0,4.4340664E-1,5.171178E-1,6.389265E-1,1.7096329E0,2.8631592E-1,7.010803E-1,2.0942688E-1,2.1866379E0,9.2033386E-1,4.389572E-1,0E0,9.016216E-3,1.4974943E-1,4.904459E-1,1.4976377E0,1.6871738E-1,1.9386253E0,4.246254E-1,4.2271614E-2,0E0,4.323311E-1,9.824753E-1,1.19377136E-1,1.2706757E-1,5.8306885E-1,5.195999E-1,3.4108877E-2,5.7787895E-2,3.539753E-2,0E0,0E0,0E0,0E0,5.236417E-2,1.6738081E-1,0E0,2.4523735E-2,2.7464652E-1,9.1104984E-2,0E0,1.1744909E0,8.326683E-1,4.3327045E-1,1.8976402E-1,0E0,0E0,7.0531464E-1,0E0,0E0,5.6098938E-2,0E0,0E0,0E0,0E0,0E0,0E0,0E0,0E0,0E0,0E0,0E0,0E0,0E0,0E0,0E0,0E0,0E0,0E0,0E0,0E0,0E0,0E0,0E0,0E0,0E0,0E0,0E0,0E0,0E0,0E0,0E0,0E0,0E0,0E0,0E0,0E0],"parents":[2147483647,0,0,1,1,2,2,3,3,4,4,5,5,6,6,7,7,8,8,9,9,10,10,11,11,12,12,13,13,14,14,15,15,16,16,17,17,18,18,20,20,21,21,22,22,23,23,24,24,25,25,26,26,27,27,29,29,30,30,31,31,32,32,33,33,34,34,35,35,36,36,37,37,42,42,43,43,45,45,46,46,47,47,49,49,50,50,51,51,52,52,55,55,58,58],"right_children":[2,4,6,8,10,12,14,16,18,20,22,24,26,28,30,32,34,36,38,-1,40,42,44,46,48,50,52,54,-1,56,58,60,62,64,66,68,70,72,-1,-1,-1,-1,74,76,-1,78,80,82,-1,84,86,88,90,-1,-1,92,-1,-1,94,-1,-1,-1,-1,-1,-1,-1,-1,-1,-1,-1,-1,-1,-1,-1,-1,-1,-1,-1,-1,-1,-1,-1,-1,-1,-1,-1,-1,-1,-1,-1,-1,-1,-1,-1,-1],"split_conditions":[1E-45,1E-45,1E-45,1E-45,3E0,1E-45,2E0,6E0,4E0,1E0,6E0,1E-45,5E0,1E-45,1E-45,4E0,1E-45,2E0,8E0,-4.0462636E-3,2E0,4E0,8E0,3E0,8E0,1E-45,8E0,1E0,-4.3146197E-2,7E0,5E0,1E-45,1E-45,7E0,7E0,1E0,3E0,6E0,3.7181322E-3,5.0203237E-3,6.845984E-3,-8.929762E-3,5E0,7E0,-4.960582E-3,1E0,5E0,1E0,-2.0166392E-2,4E0,3E0,7E0,1E-45,-2.9781675E-2,-3.854361E-2,4E0,-2.504462E-2,-3.353179E-2,1E-45,2.367357E-2,2.135594E-2,2.6646618E-2,2.3301214E-2,2.6714206E-2,3.552674E-2,2.7508697E-2,2.158435E-2,1.1548904E-2,1.4956261E-2,2.5052736E-2,2.0715332E-2,1.112597E-2,1.35416435E-2,-6.9282943E-4,-4.769876E-3,8.953309E-3,2.2117866E-3,-2.0166392E-2,-1.609761E-2,-1.8874555E-3,-7.678994E-3,-9.340709E-3,-1.4189427E-2,-1.6029095E-2,-3.4518674E-2,-3.4655448E-2,-2.5222538E-2,-1.9810183E-2,-1.31036015E-2,-2.1055445E-2,-3.0139241E-2,-2.6453404E-2,-3.9327975E-2,-3.9313953E-2,-4.402233E-2],"split_indices":[3,3,3,3,0,3,0,0,0,0,0,3,0,3,3,0,3,0,0,0,0,0,0,0,0,3,0,0,0,0,0,3,3,0,0,0,0,0,0,0,0,0,0,0,0,0,0,0,0,0,0,0,3,0,0,0,0,0,3,0,0,0,0,0,0,0,0,0,0,0,0,0,0,0,0,0,0,0,0,0,0,0,0,0,0,0,0,0,0,0,0,0,0,0,0],"split_type":[1,1,1,1,0,1,0,0,0,0,0,1,0,1,1,0,1,0,0,0,0,0,0,0,0,1,0,0,0,0,0,1,1,0,0,0,0,0,0,0,0,0,0,0,0,0,0,0,0,0,0,0,1,0,0,0,0,0,1,0,0,0,0,0,0,0,0,0,0,0,0,0,0,0,0,0,0,0,0,0,0,0,0,0,0,0,0,0,0,0,0,0,0,0,0],"sum_hessian":[8.343938E3,4.694049E3,3.6498896E3,4.0923838E3,6.0166504E2,2.2325466E3,1.4173431E3,3.2629749E3,8.29409E2,2.1051723E2,3.9114777E2,9.791292E2,1.2534174E3,3.028037E2,1.1145394E3,2.1266086E3,1.136366E3,4.1208093E2,4.173281E2,6.1475693E1,1.4904153E2,1.8249696E2,2.0865082E2,5.0892172E2,4.702075E2,6.67946E2,5.854714E2,8.1201546E1,2.2160216E2,2.9338354E2,8.2115594E2,1.3920079E3,7.346008E2,4.1971976E2,7.1664624E2,1.7739484E2,2.346861E2,3.4620557E2,7.1122505E1,7.306259E1,7.597894E1,5.6690395E1,1.25806564E2,1.481344E2,6.0516426E1,1.4994203E2,3.5897968E2,4.220534E2,4.8154068E1,2.4459097E2,4.2335504E2,4.4781067E2,1.3766072E2,4.1746128E1,3.9455418E1,2.0298569E2,9.039785E1,3.679313E2,4.532246E2,4.7559418E2,9.1641376E2,2.5520364E2,4.7939716E2,1.26658875E2,2.9306088E2,2.5234143E2,4.643048E2,8.476832E1,9.262651E1,1.24143875E2,1.1054223E2,1.6762286E2,1.7858272E2,6.3323757E1,6.248281E1,7.4917404E1,7.321699E1,4.8154068E1,1.01787964E2,1.2773185E2,2.3124783E2,5.2317825E1,3.697356E2,2.0268048E2,4.191049E1,2.4226056E2,1.8109448E2,2.8878687E2,1.590238E2,9.5131546E1,4.252917E1,8.301845E1,1.1996725E2,3.0347446E2,1.4975017E2],"tree_param":{"num_deleted":"0","num_feature":"4","num_nodes":"95","size_leaf_vector":"1"}},{"base_weights":[-7.9242676E-4,1.8349992E-1,-2.4868347E-1,2.0915696E-1,5.0692554E-3,-1.7501429E-1,-3.6673734E-1,2.2653258E-1,1.3995823E-1,1.0979792E-2,-4.741937E-3,-1.12122506E-1,-2.24572E-1,-4.0575925E-1,-3.5581905E-1,2.1334249E-1,2.5091127E-1,1.7692389E-1,1.0283458E-1,-5.240928E-3,5.3500958E-2,-8.7944284E-2,-1.3818155E-1,-2.5945958E-1,-1.8468408E-1,-3.3936545E-1,-4.2860415E-2,-3.0911073E-1,-3.7220117E-1,2.0592038E-1,2.2708243E-1,3.027211E-1,2.199169E-1,1.2571545E-1,2.1457812E-1,1.1646426E-1,3.522779E-3,2.8948601E-2,-4.4924982E-2,8.437705E-3,2.0987298E-3,-1.696903E-1,-5.3820197E-2,-1.3119943E-1,-1.9578068E-2,-1.8740162E-1,-3.0101186E-1,-1.6898498E-1,-2.3445524E-1,-2.9195279E-2,-3.811805E-2,-3.368597E-1,-2.4427388E-2,-3.2983404E-2,-4.0601256E-1,2.1272724E-2,1.9113215E-2,2.4647823E-2,2.1624243E-2,2.471633E-2,3.2563273E-2,2.3755247E-2,1.8012274E-2,1.0854188E-2,1.4007148E-2,2.321869E-2,1.9285189E-2,1.0457373E-2,1.2696244E-2,-3.864305E-3,5.6624184E-3,-8.570826E-3,-2.612795E-3,-1.9578068E-2,-1.5558372E-2,-1.797903E-3,-7.3567973E-3,-1.4352684E-2,-1.1030857E-2,-1.5488413E-2,-3.399976E-2,-3.4128647E-2,-2.4601877E-2,-1.9215086E-2,-1.2624505E-2,-2.0453274E-2,-2.9556116E-2,-2.5838954E-2,-3.8917165E-2,-3.890058E-2,-4.377043E-2],"categories":[0,1,2,3,4,5,7,9,12,0,1,2,3,4,5,7,8,9,12,0,5,7,12,0,1,2,3,4,5,7,8,9,11,12,1,3,9,4,0,5,7,5,7,12,0,1,2,3,4,5,7,8,9,10,11,12,13,1,9,0,1,2,3,4,5,7,8,9,11,12,13,0,1,2,3,4,5,6,7,8,9,11,12,13,3,7],"categories_nodes":[0,1,2,3,5,11,13,14,16,23,29,30,48,54],"categories_segments":[0,9,19,23,34,37,38,41,44,57,59,71,84,85],"categories_sizes":[9,10,4,11,3,1,3,3,13,2,12,13,1,1],"default_left":[1,1,1,1,0,1,0,0,0,0,0,1,0,1,1,0,1,0,0,0,0,0,0,1,0,0,0,0,0,1,1,0,0,0,0,0,0,0,0,0,0,0,0,0,0,0,0,0,1,0,0,0,0,0,1,0,0,0,0,0,0,0,0,0,0,0,0,0,0,0,0,0,0,0,0,0,0,0,0,0,0,0,0,0,0,0,0,0,0,0,0],"id":14,"left_children":[1,3,5,7,9,11,13,15,17,19,-1,21,23,25,27,29,31,33,35,37,39,41,43,45,47,49,-1,51,53,55,57,59,61,63,65,67,-1,69,71,-1,-1,73,75,77,-1,79,81,83,85,-1,-1,87,-1,-1,89,-1,-1,-1,-1,-1,-1,-1,-1,-1,-1,-1,-1,-1,-1,-1,-1,-1,-1,-1,-1,-1,-1,-1,-1,-1,-1,-1,-1,-1,-1,-1,-1,-1,-1,-1,-1],"loss_changes":[3.813839E2,2.1920105E1,3.0895706E1,5.001877E0,1.875922E-1,6.8127365E0,4.3800354E-1,1.0219421E0,1.1384201E0,3.746493E-1,0E0,5.983E-1,1.6582069E0,2.9703522E-1,7.084656E-1,1.7523956E-1,1.809906E0,7.846556E-1,3.855853E-1,5.356144E-1,1.4878353E-1,1.4004753E0,1.6113949E-1,1.8944092E0,4.1004944E-1,4.629612E-2,0E0,4.311123E-1,1.0004425E0,1.02695465E-1,1.0519409E-1,4.7290802E-1,4.7289658E-1,2.936554E-2,4.7480583E-2,3.0602455E-2,0E0,3.9906022E-1,1.377823E-1,0E0,0E0,2.4141788E-2,2.5204217E-1,9.164953E-2,0E0,1.1429243E0,8.2764435E-1,4.1245365E-1,1.8714857E-1,0E0,0E0,7.0889664E-1,0E0,0E0,6.476593E-2,0E0,0E0,0E0,0E0,0E0,0E0,0E0,0E0,0E0,0E0,0E0,0E0,0E0,0E0,0E0,0E0,0E0,0E0,0E0,0E0,0E0,0E0,0E0,0E0,0E0,0E0,0E0,0E0,0E0,0E0,0E0,0E0,0E0,0E0,0E0,0E0],"parents":[2147483647,0,0,1,1,2,2,3,3,4,4,5,5,6,6,7,7,8,8,9,9,11,11,12,12,13,13,14,14,15,15,16,16,17,17,18,18,19,19,20,20,21,21,22,22,23,23,24,24,25,25,27,27,28,28,29,29,30,30,31,31,32,32,33,33,34,34,35,35,37,37,38,38,41,41,42,42,43,43,45,45,46,46,47,47,48,48,51,51,54,54],"right_children":[2,4,6,8,10,12,14,16,18,20,-1,22,24,26,28,30,32,34,36,38,40,42,44,46,48,50,-1,52,54,56,58,60,62,64,66,68,-1,70,72,-1,-1,74,76,78,-1,80,82,84,86,-1,-1,88,-1,-1,90,-1,-1,-1,-1,-1,-1,-1,-1,-1,-1,-1,-1,-1,-1,-1,-1,-1,-1,-1,-1,-1,-1,-1,-1,-1,-1,-1,-1,-1,-1,-1,-1,-1,-1,-1,-1],"split_conditions":[1E-45,1E-45,1E-45,1E-45,8E0,1E-45,2E0,6E0,4E0,6E0,-4.741937E-3,1E-45,5E0,1E-45,1E-45,4E0,1E-45,2E0,8E0,3E0,7E0,3E0,8E0,1E-45,8E0,1E0,-4.2860415E-2,7E0,5E0,1E-45,1E-45,7E0,8E0,1E0,3E0,6E0,3.522779E-3,1E0,4E0,8.437705E-3,2.0987298E-3,1E0,5E0,5E0,-1.9578068E-2,4E0,3E0,7E0,1E-45,-2.9195279E-2,-3.811805E-2,4E0,-2.4427388E-2,-3.2983404E-2,1E-45,2.1272724E-2,1.9113215E-2,2.4647823E-2,2.1624243E-2,2.471633E-2,3.2563273E-2,2.3755247E-2,1.8012274E-2,1.0854188E-2,1.4007148E-2,2.321869E-2,1.9285189E-2,1.0457373E-2,1.2696244E-2,-3.864305E-3,5.6624184E-3,-8.570826E-3,-2.612795E-3,-1.9578068E-2,-1.5558372E-2,-1.797903E-3,-7.3567973E-3,-1.4352684E-2,-1.1030857E-2,-1.5488413E-2,-3.399976E-2,-3.4128647E-2,-2.4601877E-2,-1.9215086E-2,-1.2624505E-2,-2.0453274E-2,-2.9556116E-2,-2.5838954E-2,-3.8917165E-2,-3.890058E-2,-4.377043E-2],"split_indices":[3,3,3,3,0,3,0,0,0,0,0,3,0,3,3,0,3,0,0,0,0,0,0,3,0,0,0,0,0,3,3,0,0,0,0,0,0,0,0,0,0,0,0,0,0,0,0,0,3,0,0,0,0,0,3,0,0,0,0,0,0,0,0,0,0,0,0,0,0,0,0,0,0,0,0,0,0,0,0,0,0,0,0,0,0,0,0,0,0,0,0],"split_type":[1,1,1,1,0,1,0,0,0,0,0,1,0,1,1,0,1,0,0,0,0,0,0,1,0,0,0,0,0,1,1,0,0,0,0,0,0,0,0,0,0,0,0,0,0,0,0,0,1,0,0,0,0,0,1,0,0,0,0,0,0,0,0,0,0,0,0,0,0,0,0,0,0,0,0,0,0,0,0,0,0,0,0,0,0,0,0,0,0,0,0],"sum_hessian":[8.346229E3,4.7873647E3,3.5588633E3,4.185367E3,6.019977E2,2.192906E3,1.3659573E3,3.3435393E3,8.4182776E2,5.4178076E2,6.0216972E1,9.678755E2,1.2250305E3,2.90729E2,1.0752283E3,2.1759768E3,1.1675625E3,4.1992456E2,4.2190317E2,3.928105E2,1.4897025E2,5.0432507E2,4.6355038E2,6.5053876E2,5.744918E2,7.848479E1,2.122442E2,2.8435385E2,7.908744E2,1.4231827E3,7.527942E2,4.337476E2,7.3381494E2,1.7977527E2,2.4014929E2,3.5051575E2,7.138742E1,2.1115868E2,1.8165181E2,7.5591156E1,7.337909E1,1.4735526E2,3.5696982E2,4.163577E2,4.71927E1,2.3994606E2,4.1059268E2,4.4007587E2,1.3441595E2,4.0521194E1,3.7963596E1,1.9619188E2,8.816198E1,3.557984E2,4.3507596E2,9.6542377E2,4.5775897E2,2.6209534E2,4.9069882E2,1.3008807E2,3.0365952E2,5.050311E2,2.2878383E2,8.575298E1,9.402229E1,1.2729328E2,1.1285602E2,1.6949826E2,1.8101749E2,6.1227467E1,1.4993121E2,5.618642E1,1.2546539E2,4.71927E1,1.0016255E2,1.27490944E2,2.2947888E2,2.5815424E2,1.5820346E2,1.9945758E2,4.0488476E1,2.3400874E2,1.7658392E2,2.8312225E2,1.5695364E2,9.314945E1,4.1266502E1,8.085111E1,1.1534077E2,2.9177515E2,1.4330081E2],"tree_param":{"num_deleted":"0","num_feature":"4","num_nodes":"91","size_leaf_vector":"1"}},{"base_weights":[-9.095536E-4,1.7114793E-1,-2.4250211E-1,1.945854E-1,4.8047067E-3,-1.6939051E-1,-3.619204E-1,2.1037026E-1,1.3117196E-1,1.0416516E-2,-4.531944E-3,-1.0782854E-1,-2.1844517E-1,-4.0203515E-1,-3.507504E-1,2.3265572E-1,1.9825284E-1,1.6521093E-1,9.673637E-2,-5.0016805E-3,5.0601427E-2,-8.437765E-2,-1.3323106E-1,-2.5327468E-1,-1.7891856E-1,-3.3407882E-1,-4.2564165E-2,-3.032904E-1,-3.6750442E-1,2.0868053E-1,2.993736E-2,1.6195953E-1,2.0798472E-1,1.1802465E-1,1.9960138E-1,1.0940526E-1,3.3383307E-3,2.7429018E-2,-4.292083E-2,7.95589E-3,1.9916676E-3,-1.6417551E-1,-5.144375E-2,-1.2639706E-1,-1.8995931E-2,-1.8162528E-1,-2.9506657E-1,-1.6342781E-1,-2.2833887E-1,-2.8604066E-2,-3.7681602E-2,-3.314457E-1,-2.3810633E-2,-3.2425854E-2,-4.0227783E-1,2.5567377E-2,1.8899864E-2,1.4319598E-2,1.789559E-2,2.140018E-2,1.680946E-2,1.0208368E-2,1.3130787E-2,2.1558812E-2,1.797968E-2,9.835626E-3,1.19138425E-2,-3.689861E-3,5.352111E-3,-8.223394E-3,-2.4906879E-3,-1.8995931E-2,-1.5029048E-2,-1.7124474E-3,-7.045805E-3,-8.392586E-3,-1.3217798E-2,-1.4957756E-2,-3.3471704E-2,-3.359185E-2,-2.3981392E-2,-1.8626576E-2,-1.2157022E-2,-1.9856326E-2,-2.8967787E-2,-2.5223276E-2,-3.849471E-2,-3.8475364E-2,-4.3508884E-2],"categories":[0,1,2,3,4,5,7,9,12,0,1,2,3,4,5,7,8,9,12,0,5,7,12,0,1,2,3,4,5,7,8,9,11,12,1,3,9,0,1,2,3,4,5,7,8,9,10,11,12,13,4,0,5,7,5,7,12,1,9,3,7],"categories_nodes":[0,1,2,3,5,7,11,13,14,23,48,54],"categories_segments":[0,9,19,23,34,37,50,51,54,57,59,60],"categories_sizes":[9,10,4,11,3,13,1,3,3,2,1,1],"default_left":[1,1,1,1,0,1,0,1,0,0,0,1,0,1,1,0,0,0,0,0,0,0,0,1,0,0,0,0,0,0,0,0,0,0,0,0,0,0,0,0,0,0,0,0,0,0,0,0,1,0,0,0,0,0,1,0,0,0,0,0,0,0,0,0,0,0,0,0,0,0,0,0,0,0,0,0,0,0,0,0,0,0,0,0,0,0,0,0,0],"id":15,"left_children":[1,3,5,7,9,11,13,15,17,19,-1,21,23,25,27,29,31,33,35,37,39,41,43,45,47,49,-1,51,53,55,-1,57,59,61,63,65,-1,67,69,-1,-1,71,73,75,-1,77,79,81,83,-1,-1,85,-1,-1,87,-1,-1,-1,-1,-1,-1,-1,-1,-1,-1,-1,-1,-1,-1,-1,-1,-1,-1,-1,-1,-1,-1,-1,-1,-1,-1,-1,-1,-1,-1,-1,-1,-1,-1],"loss_changes":[3.470995E2,1.9012634E1,3.026323E1,4.25119E0,1.7017709E-1,6.487953E0,4.4960022E-1,8.776703E-1,9.857664E-1,3.3692214E-1,0E0,5.595522E-1,1.6053734E0,3.0736542E-1,7.1456146E-1,1.8557129E0,7.5141907E-1,6.7158985E-1,3.3926392E-1,4.852279E-1,1.3237813E-1,1.3080857E0,1.5363407E-1,1.8477592E0,3.9525986E-1,5.0089836E-2,0E0,4.290142E-1,1.0170441E0,7.70668E-1,0E0,1.2570572E-1,3.8388824E-1,2.5353193E-2,3.92313E-2,2.6524544E-2,0E0,3.5910368E-1,1.2673154E-1,0E0,0E0,2.3682117E-2,2.3114216E-1,9.004831E-2,0E0,1.1103926E0,8.210716E-1,3.9196396E-1,1.8416595E-1,0E0,0E0,7.112045E-1,0E0,0E0,7.3402405E-2,0E0,0E0,0E0,0E0,0E0,0E0,0E0,0E0,0E0,0E0,0E0,0E0,0E0,0E0,0E0,0E0,0E0,0E0,0E0,0E0,0E0,0E0,0E0,0E0,0E0,0E0,0E0,0E0,0E0,0E0,0E0,0E0,0E0,0E0],"parents":[2147483647,0,0,1,1,2,2,3,3,4,4,5,5,6,6,7,7,8,8,9,9,11,11,12,12,13,13,14,14,15,15,16,16,17,17,18,18,19,19,20,20,21,21,22,22,23,23,24,24,25,25,27,27,28,28,29,29,31,31,32,32,33,33,34,34,35,35,37,37,38,38,41,41,42,42,43,43,45,45,46,46,47,47,48,48,51,51,54,54],"right_children":[2,4,6,8,10,12,14,16,18,20,-1,22,24,26,28,30,32,34,36,38,40,42,44,46,48,50,-1,52,54,56,-1,58,60,62,64,66,-1,68,70,-1,-1,72,74,76,-1,78,80,82,84,-1,-1,86,-1,-1,88,-1,-1,-1,-1,-1,-1,-1,-1,-1,-1,-1,-1,-1,-1,-1,-1,-1,-1,-1,-1,-1,-1,-1,-1,-1,-1,-1,-1,-1,-1,-1,-1,-1,-1],"split_conditions":[1E-45,1E-45,1E-45,1E-45,8E0,1E-45,2E0,1E-45,4E0,6E0,-4.531944E-3,1E-45,5E0,1E-45,1E-45,7E0,2E0,2E0,8E0,3E0,7E0,3E0,8E0,1E-45,8E0,1E0,-4.2564165E-2,7E0,5E0,2E0,2.993736E-2,1E0,8E0,1E0,3E0,6E0,3.3383307E-3,1E0,4E0,7.95589E-3,1.9916676E-3,1E0,5E0,1E0,-1.8995931E-2,4E0,3E0,7E0,1E-45,-2.8604066E-2,-3.7681602E-2,4E0,-2.3810633E-2,-3.2425854E-2,1E-45,2.5567377E-2,1.8899864E-2,1.4319598E-2,1.789559E-2,2.140018E-2,1.680946E-2,1.0208368E-2,1.3130787E-2,2.1558812E-2,1.797968E-2,9.835626E-3,1.19138425E-2,-3.689861E-3,5.352111E-3,-8.223394E-3,-2.4906879E-3,-1.8995931E-2,-1.5029048E-2,-1.7124474E-3,-7.045805E-3,-8.392586E-3,-1.3217798E-2,-1.4957756E-2,-3.3471704E-2,-3.359185E-2,-2.3981392E-2,-1.8626576E-2,-1.2157022E-2,-1.9856326E-2,-2.8967787E-2,-2.5223276E-2,-3.849471E-2,-3.8475364E-2,-4.3508884E-2],"split_indices":[3,3,3,3,0,3,0,3,0,0,0,3,0,3,3,0,0,0,0,0,0,0,0,3,0,0,0,0,0,0,0,0,0,0,0,0,0,0,0,0,0,0,0,0,0,0,0,0,3,0,0,0,0,0,3,0,0,0,0,0,0,0,0,0,0,0,0,0,0,0,0,0,0,0,0,0,0,0,0,0,0,0,0,0,0,0,0,0,0],"split_type":[1,1,1,1,0,1,0,1,0,0,0,1,0,1,1,0,0,0,0,0,0,0,0,1,0,0,0,0,0,0,0,0,0,0,0,0,0,0,0,0,0,0,0,0,0,0,0,0,1,0,0,0,0,0,1,0,0,0,0,0,0,0,0,0,0,0,0,0,0,0,0,0,0,0,0,0,0,0,0,0,0,0,0,0,0,0,0,0,0],"sum_hessian":[8.3482E3,4.875942E3,3.4722588E3,4.273626E3,6.023159E2,2.1551978E3,1.317061E3,3.4200017E3,8.536242E2,5.423838E2,5.993212E1,9.5717395E2,1.1980237E3,2.792385E2,1.0378225E3,1.1981871E3,2.2218147E3,4.273744E2,4.2624982E2,3.9261884E2,1.4976495E2,4.9995282E2,4.5722113E2,6.339768E2,5.640469E2,7.5898994E1,2.033395E2,2.7576154E2,7.6206104E2,8.8447675E2,3.1371042E2,4.7352582E2,1.7482888E3,1.8203737E2,2.4533704E2,3.5461047E2,7.163936E1,2.1177391E2,1.8084492E2,7.623167E1,7.353328E1,1.4489398E2,3.5505884E2,4.1094336E2,4.627775E1,2.3552713E2,